15563 12
行者 -0.2764716 -0.5848819 -0.29976693 0.18484944 -0.2832657 0.22879973 0.085343726 0.47045124 0.28927407 -0.25733668 -0.76947755 -0.33536017
八戒 -0.48382902 -0.57625157 -0.038364444 0.46518373 -0.52000785 -0.04391542 0.34877065 0.6794294 0.60101795 0.08148302 -0.6103665 -0.55165404
师父 -0.28325233 -0.6069377 -0.35481405 0.33630562 -0.2926244 0.08931939 -0.027053729 0.51436865 0.4451847 0.09291688 -0.6058938 -0.6107875
三藏 0.0879662 0.0068097725 -0.24826589 0.53081447 -0.5396445 -0.17095834 -0.5029181 0.68115383 0.19744416 0.14414106 -0.6776319 -0.7400028
一个 -0.48896298 -0.7647127 -0.5620647 0.72736514 -0.2567086 -0.27428836 0.53044546 0.4128531 -0.20941308 -0.16834188 -0.5865475 0.07319727
唐僧 -0.23256974 -0.118155494 -0.012944701 0.3278991 -0.3908177 0.07988866 -0.2728691 0.6327414 0.3009563 -0.39732715 -0.7952104 -0.67374396
大圣 0.4414392 -0.8599732 -0.20371458 0.3002647 -0.25235245 0.43253884 0.39346355 0.39443406 0.010251449 -0.5747908 -0.514259 -0.09236207
沙僧 -0.4223637 -0.39519468 -0.16064659 0.35450685 -0.38420987 0.28329405 0.28238976 0.8936907 0.63638663 -0.090871155 -0.7225996 -0.41608644
和尚 -0.68805444 -0.7365354 -0.4622891 0.68322504 -0.2677207 -0.34337115 -0.3334132 0.84712505 -0.13014583 0.20139273 -0.63985443 -0.28846666
妖精 -0.31520337 -1.0474602 0.15404212 0.6858461 -0.5148923 -0.15933852 0.30231738 0.40270045 0.4556032 -0.45956054 -0.2772988 -0.0022283779
不知 0.038084835 -0.45575622 -0.2837514 0.30995125 -0.50643355 0.22583635 -0.42507088 0.3053425 -0.02454003 -0.10933067 -0.653882 -0.45214948
菩萨 1.2132549 -0.98163503 -0.65835387 0.43274868 0.5230118 0.23173353 -0.96273357 0.41434166 0.42679802 -0.3916068 -0.38260657 -0.49747512
两个 -0.42307556 -0.8658216 -0.060290802 0.5551173 -0.25074014 -0.22295909 0.21913794 0.62965244 0.11780097 -0.32316884 -0.5919793 -0.025938027
长老 -0.16937608 0.015022485 -0.47842836 0.5553943 -0.40153465 -0.58903664 -0.42084 0.595202 -0.14002194 0.11698823 -0.7599067 -1.04575
国王 -0.07071831 -0.20104915 -0.019184163 0.24288806 -0.628985 -0.15894502 -0.10752155 0.7263482 -0.9649176 -0.17136829 -1.4269512 -1.3250852
呆子 -0.5917517 -0.9172925 -0.123633645 0.45396686 -0.5594894 -0.18533505 0.64572275 0.44786304 0.7672417 0.23798126 -0.510873 -0.6034066
徒弟 -0.15198866 -0.4807427 -0.47819334 0.48190475 -0.3024081 -0.18949036 -0.37035492 0.7310306 0.2532126 0.24734889 -0.44602084 -0.5833278
只见 -0.09136702 -0.24310422 -0.45317918 0.23331104 -0.13751292 -0.12863404 0.32236132 0.72208554 0.26475248 -0.26921764 -0.97860223 -0.038918506
老孙 0.16436505 -1.0492965 -0.2968496 0.04493865 -0.3616007 0.45960012 -0.11971087 0.25399724 0.076291695 -0.30560282 -0.5770274 -0.28477094
原来 -0.3034088 -0.81612504 -0.30522516 0.5503297 -0.19826926 -0.33343127 0.4636153 0.509638 0.20258693 -0.44136772 -0.4055856 -0.039321855
不敢 -0.3565665 -0.6686948 -0.48085114 0.06285951 -0.24798386 -0.0051320936 -0.30425352 0.60194683 -0.21581952 -0.2194758 -0.7358277 -0.4113723
那怪 -0.5449799 -1.0345745 -0.24390921 0.4640879 -0.3489114 0.034992456 0.509856 0.7020804 0.24436037 -0.6100808 -0.21724795 -0.01919219
闻言 0.030972619 -0.6601651 -0.4536302 0.45713863 -0.24689186 -0.011140393 -0.5339055 0.5743916 -0.033752672 -0.024868043 -0.43761855 -0.38773492
大王 -1.1103121 -1.0526347 -0.68890387 0.3801599 -0.05909258 -0.12760709 0.013060837 0.48543876 -0.3032153 -1.4010901 -0.5439281 0.05261526
正是 0.11498281 -0.14776094 -0.059670396 0.50714606 -0.5625693 0.03211719 -0.3951857 0.36635467 0.31687295 -0.34283003 -0.5329748 -0.415287
一声 -0.39313403 -0.61262316 -0.43358442 0.5438521 -0.17401737 0.017813101 0.4476221 0.6200169 0.059823256 -0.37224737 -0.532571 -0.0628306
小妖 -0.8699703 -0.8703018 -0.27704784 0.6617026 -0.08488349 0.13109078 0.34215605 0.67552066 0.47144005 -1.1608611 -0.37191552 0.073111564
真个 -0.15225185 -0.5844022 -0.40956977 0.33633286 -0.38077396 -0.20540936 0.69023126 0.12514116 -0.0041897106 -0.35124677 -0.696329 -0.07945004
宝贝 -0.4816848 -0.89125544 -0.28872463 0.7647164 -0.21196236 0.65255857 0.16052732 0.4523385 -0.63391376 -0.9144748 -0.773701 0.1378026
三个 -0.5733413 -0.64288974 -0.172124 0.5903869 -0.3107372 0.19145334 -0.21912457 0.943636 -0.058832332 -0.54587865 -0.44747305 -0.04235082
兄弟 -0.56322235 -0.77145165 -0.08635198 0.6226032 -0.5206347 0.27903485 0.3700626 0.4609066 0.5759283 -0.034299478 -0.50888425 -0.21293654
今日 -0.15400267 -0.553509 -0.4773919 0.06911481 -0.43946365 0.03953223 -0.54621315 0.19357172 -0.13425915 -0.09359184 -0.82703555 -0.46634468
却说 -0.13165565 -0.30341858 -0.076953694 0.1955842 -0.33132002 0.25316834 0.18795456 0.86976093 0.4929447 -0.32308376 -0.7164478 -0.63350356
悟空 0.37328446 -0.589635 -0.28220662 0.3914313 -0.12173779 0.021079604 -0.43046668 0.40897843 0.6925392 -0.13975981 -0.4830767 -0.36864728
取经 0.1910446 -0.74930453 -0.45415398 0.46773893 -0.31878337 -0.16564402 -0.8701339 0.9329329 0.0065870066 0.3041183 -0.2763361 -0.8100628
孙行者 -0.5207425 -0.80846334 -0.030964049 0.7531219 -0.005959786 0.3543925 -0.14277148 0.48227087 0.17396738 -1.0970694 -0.47378033 -0.28593677
这般 -0.2284029 -0.8655987 -0.44519192 0.52347445 -0.31511277 -0.07365489 0.045037318 0.21951078 0.23091002 -0.028242916 -0.4196373 -0.13927867
妖怪 -0.018183652 -0.97181505 -0.25898787 0.3407518 -0.2824882 -0.12870774 0.21277143 0.55728143 0.49487185 -0.32823482 -0.1699448 -0.1898689
不见 -0.036360335 -0.5507074 -0.2921157 0.11028281 -0.32702836 -0.10310459 0.31712133 0.50499564 0.4305807 -0.30698964 -0.8661948 0.08215065
老者 -0.20537627 -1.0082202 -1.5271604 0.72381854 -0.58822906 -0.7465599 -0.6513234 0.7344463 0.45824283 0.8261645 0.41105038 0.03252968
铁棒 -0.13805279 -1.3258349 0.26034194 0.76444554 -0.3472326 -0.19069156 0.53820056 0.6666655 0.14209878 -0.73301584 -0.35562053 0.34806594
师徒 0.38420507 0.678133 -0.228074 0.5107475 -1.0664827 -0.09495786 -0.20362085 0.48588827 0.6989706 -0.24653348 -0.5667984 -0.46232566
认得 -0.18967244 -1.0270344 -0.49313393 0.36052522 0.014475911 -0.019839846 -0.1904673 0.39941368 0.4612412 -0.36421415 -0.394184 -0.08846367
孙大圣 0.6561435 -0.68931794 -0.09096839 0.14590272 -0.24260779 0.50251985 0.13305348 0.72403985 0.37718332 -0.703387 -0.5489173 -0.018537972
上前 -0.12017006 -0.9918867 -0.41337505 0.3366471 0.15115032 -0.07162451 0.3320581 0.6047533 0.17335339 -0.47304282 -0.51165456 -0.22274697
哥哥 -0.59860563 -0.5427058 -0.20139427 0.4930504 -0.54605645 0.04879316 0.57248443 0.5377657 0.5975094 0.076359674 -0.55126226 -0.568997
性命 -0.351277 -1.0589331 -0.03597718 0.39026225 -0.3168909 0.24021088 -0.408818 0.2748458 0.3137903 -0.4087816 -0.49362633 -0.28059837
妖魔 0.52385145 -1.17509 -0.27915883 0.25952536 -0.630827 0.33417645 -0.1782805 0.6449054 0.2308893 -0.6385639 0.09603869 0.39043957
老爷 -0.45014215 -0.3688264 -0.6061272 0.19041272 -0.78707755 -0.05579909 -1.1041753 0.61581117 0.57434833 0.35606232 -0.9709483 0.42737246
太子 0.9061498 -1.6195184 -0.51892227 -0.44514418 -0.4358706 0.82072645 0.06300686 0.6951536 -0.3263286 -1.1596113 -0.52415866 0.3746159
西天 0.35559818 -0.9590384 -0.7067435 0.40111673 -0.3004907 -0.3321852 -0.9003317 0.8223442 0.03519787 0.23577914 0.13226679 -0.6127617
行李 -0.1631439 -0.516962 -0.23429102 0.1593888 -0.49796993 0.093810745 0.18645966 0.8453619 1.2517552 -0.019576136 -0.29287598 -0.80036676
师兄 -0.3432754 -0.8898348 -0.3534736 0.7105334 -0.2621394 -0.09780415 0.21455322 0.46257362 0.618041 0.44224402 -0.49546987 -0.81392074
公主 -0.2932145 -0.9378117 0.0043936903 -0.40509546 -0.66631645 -0.81317633 -0.6568596 -0.13122326 -0.64935267 -1.0601798 -1.0503747 -1.1252332
问道 -0.26147294 -0.34361556 -0.7198188 0.40221676 -0.22292747 -0.22125211 -0.35101193 0.8509876 -0.1009723 -0.098371856 -0.47809938 -0.40774912
弟子 0.8875392 -0.6647589 -0.45124632 0.6835813 0.00630812 0.064958364 -1.1153885 0.33088553 0.48530674 0.28541192 -0.66754705 -0.36645436
土地 0.70922625 -1.1096468 -0.76809704 0.96662307 -0.54367477 0.76225567 0.45537516 -0.2891571 -0.03022581 -0.22393373 0.21565682 -0.0070731295
乃是 0.28797513 -0.45676613 -0.3584565 0.34875673 -0.32440427 -0.1633492 -0.009330902 0.6355951 -0.15266928 -0.11929166 -0.5964603 -0.1627863
如来 1.3868037 -0.7691676 0.3653269 1.0057428 -0.36158034 0.3459264 -1.2231721 0.25295573 0.831554 -0.5631068 -0.29482362 -0.31411502
看见 -0.44528466 -0.7395939 -0.5774295 0.48869517 -0.019543093 -0.23545404 0.11358642 0.7874613 0.46641645 -0.15326598 -0.5232981 0.010973841
怎生 -0.08156041 -0.63106304 -0.496788 0.6202766 -0.2653335 -0.011027289 -0.08219626 0.4162855 0.22804923 -0.17329063 -0.3646656 -0.00853882
一齐 -0.19750296 -0.6971269 -0.29603013 0.44327667 -0.16754061 0.28715983 0.2353015 0.60411155 0.42514205 -0.5040168 -0.7342591 0.2919585
爷爷 -0.5839765 -0.56619287 -0.43655282 0.23274109 -0.1094407 -0.13580987 -0.7718311 0.5871528 0.17108098 -0.45967594 -1.0829341 0.055200018
模样 -0.40630156 -0.93925685 -0.43634996 0.78160375 0.13194573 -0.40094066 0.21740401 0.29535216 -0.114350505 -0.48163113 -0.5165348 -0.24452756
一个个 -0.32303312 -0.53655547 -0.3447748 0.3696651 -0.24934877 0.059344873 0.21307826 0.6901026 0.16836561 -0.7176507 -0.5287669 0.04304428
云头 0.7517872 -0.6731397 -0.29260164 0.33965167 0.1580256 0.2611034 0.5899952 0.74681383 0.65923727 -0.1674319 -0.8794481 -0.020385465
贫僧 0.010790562 -0.23618758 -0.99440867 0.60329574 -0.4101075 -0.5916547 -0.80830896 1.2020535 -0.6773493 0.38552174 -0.44819242 -1.0711884
观看 0.3355745 0.29408106 -0.6795762 0.31873277 -0.30202433 -0.67626405 0.54441965 0.50360274 0.37112328 -0.5187694 -0.8371195 -0.083212435
一座 0.69004095 0.040503785 -0.43500128 0.44782797 -0.43874958 -0.6198456 0.40608674 0.1744748 0.7895042 -0.3366675 -0.56819487 -0.27523163
不好 -0.78048533 -0.83820903 -0.4805543 0.70068353 -0.4128182 0.3349119 0.5294343 0.43326378 0.49947906 -0.12198837 -0.38258776 -0.26526
圣僧 0.71507037 -0.15347126 -0.39108133 0.37464276 -0.44182387 -0.080084644 -0.67213506 0.52024436 -0.5260629 -0.2596201 -0.5120506 -1.079002
叫做 -0.63703084 -1.2463326 -0.8237006 0.6168321 -0.4999855 0.17892148 -0.43041953 0.06315536 0.045264732 0.07305777 -0.03636088 -0.13276061
心中 -0.22778079 -0.79379785 -0.38430396 0.52966994 -0.13782103 -0.05451249 -0.25753504 0.20021439 0.09729662 -0.37759328 -0.48251042 -0.21250193
看看 -0.30379504 -0.4917498 -0.5520101 0.50676376 -0.2688104 -0.046366144 0.24652584 0.41001 0.40851757 -0.13585831 -0.4999812 -0.17253564
几个 -0.6924412 -0.51280254 -0.8780021 0.25644585 -0.2660504 -0.08843313 0.10646834 0.38925096 0.08934713 -0.063196 -0.7109297 -0.11836905
兵器 -0.12868546 -0.97691625 -0.039627012 0.24753204 -0.5980618 0.5962171 -0.049438268 1.202243 0.22004603 -1.2270714 -0.12744704 0.44102764
手段 -0.06632914 -1.3127244 -0.09841193 0.624649 -0.537411 0.052187692 0.08207342 0.16265488 0.08272379 -0.00082507 -0.23925804 0.058247562
十分 0.019619407 -0.61367744 -0.37168846 0.5712876 -0.30986407 -0.16184983 -0.06733313 0.33169106 0.08076437 -0.19497937 -0.3016061 -0.28388366
怪物 0.23377575 -1.4113485 -0.101415284 0.19869831 -0.602303 0.122605644 0.5118444 0.5993572 0.31377253 -0.6661648 -0.07964137 0.41537765
慌得 -0.15320507 -0.77323735 -0.17220971 0.43403912 0.13458462 -0.03312386 0.23671441 0.838344 0.31246084 -0.35737476 -0.735721 -0.287348
里面 -0.14293744 -0.4042337 -0.8946038 0.675883 -0.0019677286 0.0702142 0.6532956 0.5839142 0.26976553 -0.22957982 -0.40578806 -0.12522101
只得 -0.1037414 -0.5611639 -0.6645587 0.4675123 -0.22846046 -0.07333378 -0.18738416 0.049704272 0.46437708 -0.10481539 -0.36695954 -0.6696207
东土 0.43302462 -0.5278294 -0.81002396 0.6016907 -0.32553297 -0.5827172 -1.0352007 1.1127123 -0.119841486 0.3461339 -0.010029209 -0.8179641
女子 -0.29571155 -0.69911516 -1.4642556 0.6721905 0.1689001 -1.1600418 0.05200225 -0.119967386 0.10790698 -0.14698046 -0.26887265 -0.7303949
道士 -0.27927938 -0.93112355 -0.76754117 1.476936 0.49560404 -0.04669191 -0.12144339 0.53102523 -0.35596216 0.64096016 -1.4555377 0.27985883
一把 -0.33226445 -0.5592309 -0.5436843 0.816126 0.024075741 0.14359368 0.37515324 0.4608921 -0.006192649 -0.18360168 -0.6923919 -0.21205501
猪八戒 -0.4137141 -0.7871207 -0.11186695 0.55664474 0.0064623686 -0.16179496 0.18203357 0.7096597 0.51067257 -0.47350842 -0.49607593 -0.41567913
听见 -0.6326252 -0.71168125 -0.3658871 0.59417903 -0.017098434 0.030594945 -0.0054836283 0.3444619 0.43411168 -0.07318556 -0.8222432 -0.40810046
一条 -0.15495451 -0.7446674 -0.43316445 0.87161326 -0.5227158 -0.1691397 0.58387876 0.73932505 -0.10382009 -0.4342291 0.063691676 0.26787892
不题 -0.058817733 -0.16225459 -0.17725503 0.04646548 -0.50851274 0.40308863 0.27367848 1.034402 0.43855926 -0.37106282 -0.729891 -0.47676706
大仙 0.3459293 -0.4254333 -0.48567876 1.6395628 0.34362018 0.29812393 0.23609258 0.20195375 -0.30173182 0.89565504 -2.2712169 -0.24419144
衣服 -0.9811201 -0.49090874 -0.92331713 0.5806784 -0.24220514 0.13544214 0.5968165 0.71406347 0.061406452 0.013351103 -0.6978272 -0.3908245
袈裟 0.098366946 0.06336151 -0.44849357 0.50211906 -0.093395434 0.6616952 -1.0275768 0.6705381 1.059387 -0.4648033 -1.2704287 0.4774451
叫声 -0.14526561 -0.6159927 -0.33120674 0.743143 0.07961719 0.27051362 0.55354863 0.70845544 0.30576256 -0.5127755 -0.47575718 -0.20954505
天王 0.7729375 -1.5713191 -0.7437907 -0.62151897 -0.4489922 1.170442 -0.29175714 -0.09587914 0.6336587 -1.0135581 -0.85058653 0.3023514
变化 -0.12053105 -0.8619573 -0.09957281 0.60142285 -0.55949223 0.3701433 0.3220609 0.08172354 0.06746049 -0.7097743 -0.26710433 -0.10645611
唬得 -0.55233413 -0.6045307 -0.0054250015 0.42412367 -0.28262654 -0.24133874 0.24416724 0.7644163 -0.027399175 -0.6000073 -0.75752777 -0.23790346
娘娘 -0.6616278 -1.0743766 -0.96433896 -0.24735777 0.36203226 -0.18732315 0.10299533 0.49411568 -1.2125491 -1.540655 -1.4520987 -0.81177527
门外 0.056987435 -0.39855894 -0.39910462 0.42888075 0.11837812 -0.36444545 -0.03266055 1.1093967 0.11609196 -0.50971127 -0.43162897 -0.34864986
晓得 -0.39612117 -0.8291799 -0.42308632 0.51948726 -0.39048547 0.005530183 0.15028471 -0.048399813 0.5820538 0.2346136 -0.5557857 -0.32594934
打死 -0.34807664 -1.1629208 0.13248771 0.24589324 -0.5174821 0.24104516 -0.2204939 0.10148183 0.61775523 -0.5635996 -0.5331033 -0.12618376
吩咐 -0.050744772 -0.39796633 -0.5394652 0.13340123 -0.08508061 0.7009993 -0.24377172 0.5476091 0.50559735 -0.22667803 -0.77388227 -0.53071785
喝道 -0.078001514 -1.2933074 -0.029211875 0.40824616 -0.09002241 -0.20099415 -0.018196687 0.62194794 0.13526373 -0.4802743 -0.3139522 -0.16835563
言语 -0.23081842 -0.66895425 -0.57594836 0.49811196 -0.1727879 -0.07045997 0.2879854 0.31666175 0.06069391 -0.1717966 -0.31555423 -0.6574434
左右 0.014231444 -0.19226049 -0.2686514 0.5917279 -0.14484763 -0.036135856 0.16031922 0.7353566 -0.096962065 -0.3608173 -0.71806425 -0.3646306
欢喜 -0.15880038 -0.3611686 -0.6225699 0.45066443 -0.23724772 0.26443535 -0.06094244 0.49451295 0.08217483 -0.084793046 -0.580521 -0.5235369
走路 -0.5510487 -0.31597945 -0.5084657 0.69498485 -0.70490384 -0.070561215 -0.003737957 0.1848761 0.8566043 0.4025116 -0.5593487 -0.4975068
那长老 0.09718473 -0.38780358 -0.4668745 0.5585187 -0.015931163 -0.20843908 0.40320337 0.4340318 0.7307677 0.08379738 -0.5568662 -0.9067723
龙王 0.832377 -1.7913903 -0.37924343 -0.50367767 -0.42102084 0.54776615 0.284568 0.5650401 -0.56025153 0.29051086 -1.2556347 0.0840847
却是 -0.093170665 -0.5292051 -0.6681455 0.4560838 -0.08636324 -0.306653 0.30273962 0.35974675 0.27835658 -0.21122836 -0.54122674 -0.019228268
妖道 -1.2787018 -0.8339494 -0.7193138 0.58292 0.21333879 0.11848097 -0.18468854 0.5691328 0.37373644 -1.483706 -0.29907352 -0.62114894
仔细 -0.17819642 -0.4225335 -0.24930923 0.60579646 -0.20952313 0.078226 0.66803825 0.36415216 0.5220669 -0.6770112 -0.5395966 -0.15983567
高叫 -0.023099098 -0.8461111 -0.6016354 0.4169666 0.15841243 -0.11549263 0.18497817 0.89635074 -0.07007855 -0.5384917 -0.35562947 -0.28411064
近前 -0.01894632 -0.42552492 -0.3201352 0.38952994 -0.26063076 -0.31218684 0.18235165 0.6004906 0.46258757 -0.11302824 -0.42297342 -0.4878625
拜佛 0.35998583 -0.73008126 -0.6478823 0.4755434 -0.47698176 -0.527586 -0.85017323 0.94752425 -0.027104454 0.52920634 -0.16170599 -0.5148953
孙悟空 0.30874434 -1.4424423 -0.5519571 0.47464427 0.31576458 -0.26170513 -0.818311 0.5807278 -0.23823436 -0.655288 -0.23648188 -0.23865879
陛下 -0.019891687 -0.65334314 0.009628663 0.7453122 -0.6469815 0.11459774 -0.22301918 0.86920625 -1.3496879 0.48442435 -1.450846 -1.2603387
忽见 0.38058576 0.08512153 -0.4328118 0.18235323 -0.3571764 -0.5151196 0.2187944 0.56068516 0.90406144 -0.29698288 -0.59267646 -0.49003056
取出 -0.10906127 -0.45304722 -0.3935199 0.59691507 -0.3552872 0.7667917 0.23667565 0.72393984 -0.25820634 -0.64121246 -0.32194936 -0.26650897
西方 0.7678752 -0.55664486 -0.3008145 0.6064228 -0.5724482 -0.26496997 -0.49504814 0.41610345 0.115933456 -0.02608877 -0.05692069 -0.27996537
毫毛 -0.7551016 -0.5009107 -0.7172674 1.2879359 -0.13651891 1.3296845 1.0090244 0.63753265 -0.023949372 -0.5943551 -0.6158669 -0.04848192
神通 0.10791982 -1.0797275 0.36293563 0.6141277 -0.69061947 0.13098769 0.02476271 0.28725958 -0.012895444 -0.3984394 -0.56120497 0.12300473
一场 0.18094534 -1.3365855 0.59397763 0.7603901 -0.8943609 -0.055274203 -0.23872323 0.25118357 -0.41492987 -0.6344995 -0.3497899 0.24332726
妖邪 0.45638132 -1.099307 0.15900585 0.009846868 -0.78260994 -0.268356 -0.07922649 0.6958304 -0.05335978 -0.29555202 -0.48128635 0.18092804
金箍棒 -0.015368573 -1.1632599 0.15178542 0.72469985 -0.62667924 0.2326774 0.55791503 0.28336936 0.12106054 -0.76737636 -0.3087697 0.4944005
回头 0.027770843 -0.6116394 -0.054621316 0.78109574 -0.064360164 -0.34792584 0.54492205 0.6852666 0.38294876 -0.4164829 -0.5038369 -0.03735684
四众 0.48651305 0.7385584 -0.38822377 0.54299855 -0.81867546 -0.10772653 -0.60089 0.7480883 0.44109154 -0.18602604 -0.6126679 -0.7292878
安排 -0.6849492 0.23332456 -0.559662 0.27434206 -0.66995496 0.035258688 -0.5758482 0.5686221 0.22144035 -0.17622365 -0.9644576 -0.64926714
口里 -0.6492234 -0.8615701 -0.32296675 0.94045407 -0.20853359 -0.05364034 0.51360816 0.16965924 0.36605164 -0.103083074 -0.3966647 -0.3043241
将来 -0.55786204 -0.98136216 -0.33829513 0.5760724 -0.32946765 -0.14999603 0.2114943 0.36918953 0.7546436 -0.5073482 -0.082785286 -0.17026423
大唐 0.1944338 -0.30526415 -1.0776161 0.55688083 -0.25185713 -0.7401494 -1.3222798 1.413162 -0.28760186 0.29639286 -0.37645823 -0.9025736
空中 0.7148369 -0.9806013 0.20160893 0.60586375 -0.16543701 0.30328882 0.5089401 0.7843449 0.41375506 -0.19376078 -0.6407809 0.022741772
扯住 -0.5444803 -0.68841577 -0.79469025 0.44761664 -0.21844842 -0.13963829 -0.050987434 0.48911113 0.23107028 0.22903644 -0.4487758 -0.6883173
叩头 0.120525144 -0.6107605 -0.6027264 0.17548709 -0.116260864 0.6034177 -0.6182322 0.5283253 0.29540426 -0.38256043 -0.57260406 -0.43121806
降妖 0.558854 -1.0774597 0.16429311 0.05095924 -0.5212907 0.27116403 -0.06636813 0.85205764 0.18935803 -0.5670012 -0.2763523 -0.25957042
放心 -0.17684531 -0.1973283 -0.42984474 0.32809806 -0.4494661 0.2458618 -0.29768875 0.45474425 0.7581622 -0.3382409 -0.5138053 -0.26787773
坐在 -0.291372 -0.624879 -0.9563666 0.54704994 -0.017335957 0.12262512 0.3199232 0.42110792 0.50326896 -0.1679194 -0.2902885 -0.3202696
一只 0.12884039 -0.98936254 -0.33458352 0.95995975 0.056030747 0.5625973 1.0029359 0.60707116 0.18203288 -1.0196114 0.15459552 -0.46301633
抬头 0.25230277 -0.32252255 -0.86323136 0.38398916 0.16030006 -0.8382718 0.59525734 0.68690187 0.6971795 -0.28054723 -0.50623083 -0.24056529
回来 -0.34047928 -0.58039165 -0.25078747 0.27521226 -0.44287175 0.1495264 0.10587516 0.5988752 0.67367667 0.0133356005 -0.46629015 -0.74977636
明日 -0.89889884 0.0028085613 -0.6995686 0.23405343 -0.778531 0.009564251 -0.6841522 0.4954965 0.5771517 0.12070872 -0.9716321 -0.25350803
大小 -0.37031388 -0.41632235 -0.37637624 0.23488092 -0.2290678 0.43800262 0.044352606 0.75362164 -0.25637728 -0.8536324 -0.81515115 -0.08983071
不尽 0.6201301 0.1519298 -0.6488621 0.33242056 -0.2931888 -0.05990982 -0.21351288 0.34541038 0.3234702 -0.34153843 -0.6453121 -0.46851805
此时 -0.0060677975 -0.015295685 -0.13763952 0.3673631 -0.34046677 0.09106218 0.017452007 0.6219942 0.4602674 -0.37053192 -1.059901 -0.10631664
有个 0.120670855 -0.8820322 -0.6624094 0.46837038 -0.39631373 -0.2966713 -0.27995756 0.30944604 0.031018615 -0.040030375 -0.022529818 -0.09357022
忍不住 -0.34376308 -0.8743732 -0.26693392 0.5361627 -0.26031163 -0.18276659 0.16033748 0.50854677 0.13780029 -0.13373013 -0.37025914 -0.26531652
收拾 -0.4153333 -0.04641698 -0.6476962 0.12644868 -0.6972118 0.34705198 -0.30776945 0.52466476 0.9938965 -0.15233772 -0.4530374 -0.532323
当时 0.32451886 -0.6399462 -0.32845777 0.10083679 -0.54427266 0.2524936 -0.4475257 -0.050668012 -0.15862095 -0.43189928 -0.59661716 -0.36134905
赶上 -0.20293798 -1.044762 0.3050916 0.85123074 -0.22547415 -0.18251589 0.49437422 0.5235111 0.8613554 -0.3064554 -0.34525037 -0.22854632
不可 0.017292136 -0.34440127 -0.49177548 0.31753173 -0.20408385 0.1623119 -0.26114747 0.18678817 0.013933897 -0.1494447 -0.8350983 -0.7086028
老猪 -0.34262058 -0.68419665 -0.21543676 0.33797902 -0.8989505 -0.021355694 0.6386965 0.45246187 0.9166517 0.3148644 -0.33445463 -0.41480273
一日 0.21407038 -0.14074698 -0.5520116 0.39692822 -1.0223689 0.21039706 -0.27911213 -0.063273825 0.62739396 0.12788935 -0.39515117 -0.07184034
回去 -0.23662739 -1.0554348 -0.3464933 0.48638362 -0.37231866 0.36692286 0.2543169 -0.10067625 0.6816127 -0.031103631 -0.32900223 -0.55817974
沙和尚 -0.37572995 -0.8978986 0.15727548 0.37658733 -0.31233257 -0.4152732 0.03775744 0.6819336 0.94670486 -0.18802051 -0.443389 -0.5718889
关文 -0.22392252 0.015438163 -0.009718766 0.44706565 -0.80155265 -0.13557786 -0.861422 1.2330766 -0.45497245 0.12485801 -1.1124995 -1.4954137
一口 -0.6484248 -0.6990064 -0.163547 0.9229105 -0.26952106 0.25349772 0.6818378 0.2389333 0.22077534 -0.089268066 -0.93082833 0.036660645
许多 -0.21603355 -0.40377235 -0.5117612 0.23159796 -0.664163 -0.009191774 0.017286912 0.08591548 0.599117 -0.015413757 -0.59174746 -0.17662823
僧道 -0.23444095 -0.29793763 -0.61055255 0.52512723 -0.9168783 0.107508264 -0.9647882 0.51673245 0.31915656 0.72754335 -1.2331538 0.7320111
不肯 -0.24161229 -0.71852887 -0.53738964 0.6186808 -0.3724275 0.27304357 -0.42943397 -0.027966656 0.264918 0.13233903 -0.33950594 -0.54251546
有人 -0.20282711 -0.30639163 -0.7510668 0.27228507 -0.20014009 -0.49016264 0.04011445 0.9003889 0.3354511 -0.19740096 -0.49090976 -0.016786741
二人 -0.33850583 -0.7479273 0.37363225 0.51411045 -0.40815914 -0.22347856 0.24833539 0.6265375 0.7749414 -0.49171624 -0.6087682 -0.25859436
看时 -0.113648556 -0.24624087 -0.60671973 0.48273712 -0.10876558 -0.46351242 0.6532451 0.5458552 0.607974 -0.5983343 -0.60861385 0.19704178
报道 -0.2011966 -0.6034895 -0.660011 0.17575105 0.4296003 0.027198603 -0.21812837 0.8952174 0.54483455 -1.5254295 -0.46853226 -0.09153958
听说 -0.39514998 -0.45464674 -0.2361885 0.39726317 -0.4671084 0.078351356 -0.30433372 0.5365373 -0.20175128 -0.46342796 -0.50392413 -0.57209915
门前 -0.022057522 -0.93521595 -0.46375266 0.21980627 -0.2513671 -0.667252 0.3469011 0.59303796 0.59032184 -0.7264132 -0.28096464 0.53885186
白马 -0.33145288 -0.57239044 -0.39992073 0.045348123 -0.6718134 -0.02444475 0.030285865 1.0916806 1.129565 -0.06376096 -0.055923805 -0.5749871
洞里 -0.15878285 -0.8880904 -0.6218274 0.44243306 -0.24718902 0.11078534 0.28506583 0.36066252 0.8698456 -0.5873212 0.0356289 -0.0072158533
葫芦 0.16752462 -0.2800504 -0.5669597 2.0017297 -0.23949239 1.3690035 0.7009273 0.50190336 -0.22060752 -1.2080259 0.31315494 -0.31370267
妖王 -0.31548005 -1.223629 -0.65857875 0.35109964 0.27475291 0.21239144 0.36868098 0.76555717 -0.6736194 -1.5105658 -0.6721825 -0.008803777
下回分解 0.47494364 0.15374324 0.21297477 0.62571037 -0.6752839 0.76942885 -0.23209679 0.3692221 0.9190832 -0.56378263 -0.62634444 -0.6969353
造化 -0.680316 -0.40680307 -0.9987366 0.8329061 -0.46775475 0.32096848 0.08155171 -0.23269248 0.54344666 -0.08400255 -0.35025248 -0.20772623
此处 0.25424278 -0.88478935 -0.46562538 0.59090275 -0.3815167 -0.30379406 -0.67617565 0.13836071 0.48494172 0.33635524 -0.40118596 -0.037129138
之下 0.27459672 -0.29399645 -0.43803743 0.5074862 -0.03621237 -0.2175183 0.43086582 0.36124653 0.4571236 -0.5558411 -0.4063045 -0.41055447
只管 -0.49637052 -0.6482999 -0.4870196 0.6144352 -0.27385783 0.27745914 -0.016530404 0.1855988 0.46587336 0.17508347 -0.49123496 -0.8290518
猴子 0.010234885 -1.3508066 -0.25761473 0.594948 0.15463114 0.27267465 0.218546 -0.099490136 0.65471053 -0.57462555 -0.34391397 -0.4145198
过去 0.08978368 -0.78672504 -0.51098204 0.6879788 -0.644752 -0.053201754 0.023773503 0.3928489 0.7305059 0.39229485 0.09639472 -0.23220727
众僧 -0.40295377 -0.037442867 -0.40585053 0.34520575 -0.3565438 0.17835042 -1.0692638 0.9098593 0.69681007 -0.062109716 -1.5955644 0.5470467
未曾 0.036393426 -0.557159 -0.5558238 0.347627 -0.2748149 -0.067054614 -0.31608853 0.54684645 0.010655034 0.048145734 -0.64006704 0.033614505
一时 -0.06933267 -0.5291171 -0.54470575 0.35868162 -0.22293848 0.08983221 0.03538025 0.3592555 0.32237667 0.0981937 -0.56268203 -0.5929192
一根 -0.44221714 -0.8453411 -0.8492884 1.3161758 0.14892988 0.39741367 0.9493668 0.933147 -0.20330748 -0.5796289 -0.09830096 -0.0072653927
知道 -0.25443 -0.82237077 -0.7619241 0.34865552 -0.50689346 0.12090039 -0.15162912 0.18905589 0.50626063 -0.023586808 -0.0789458 -0.27277082
可怜 -0.45590904 -1.0179207 -0.58072066 0.54654634 -0.6366032 -0.09547672 0.39002758 0.36832687 0.32490852 0.00597264 0.0050842254 0.02524434
魔王 0.5606157 -1.4509774 -0.19874023 0.46429363 -0.3320797 0.051977046 0.038448054 0.43800667 -0.26324388 -1.3618498 -0.09037488 0.62926424
不住 -0.43881416 -0.6360689 -0.20155522 0.8039384 -0.3396806 -0.076989725 0.44555435 0.6242959 0.4086817 -0.07633464 -0.4738875 -0.048978455
说话 -0.5428396 -0.6790077 -0.4597361 0.60723215 0.032347526 -0.11895345 -0.02655667 0.3491164 0.5016952 -0.20259748 -0.5187783 -0.6479897
揭谛 1.8061292 -0.8055417 -0.5569646 0.3796088 -0.51640666 1.4472638 0.32363042 0.91864544 0.22721916 -0.42905843 0.18578862 -0.7051064
本事 -0.3490927 -1.4314562 0.16694653 0.8956108 -0.60691386 0.2655788 0.33748886 0.3749082 0.15675652 -0.11075139 -0.29261562 0.23614942
走出 -0.17912069 -0.64159733 -0.68874425 0.41494676 0.18380687 -0.5990493 -0.2951366 0.6292366 0.268825 -0.89387906 -0.37646627 0.11055173
老妖 -0.8223428 -0.8084696 -0.11446027 0.1304709 -0.32394457 0.07039021 -0.07765965 1.0150108 0.6608234 -1.5128373 -0.3043644 -0.13083132
变作 -0.14185674 -1.1487548 -0.5236077 1.0211095 0.23147625 0.53641844 0.50790346 0.2184687 -0.505005 -0.6086626 -0.5105241 -0.34969
玉帝 1.4390358 -1.6295928 -0.7278771 -0.9589194 -0.50319916 1.1853018 -0.20320673 -0.110517465 0.051638123 -0.55152726 -1.2232361 -0.39607397
佛祖 1.1824841 -0.4446516 -0.06755385 0.7961294 -0.2854987 0.13525727 -0.8654041 0.8375721 0.2750963 -0.23387271 -0.09853509 -0.570957
开门 -0.2900954 -0.49844858 -0.97613084 0.67163783 0.37520128 -0.23277476 0.21517317 0.6425006 0.6873162 -1.0509859 -0.36501455 0.35851964
东西 -0.4467567 -0.30591398 -0.7948298 0.37136754 -0.6853658 -0.24786343 0.6104151 -0.0023837697 0.12715353 0.098278314 -0.718779 -0.025487725
径至 0.39424306 -0.8026363 -0.34742746 0.11772753 0.17682727 0.42888224 0.2423304 0.7338436 0.44508445 -0.3426084 -0.87794405 -0.11679098
妇人 -0.7534524 -0.6159441 -2.2018943 0.2239018 -0.54770625 -0.23588558 0.42663988 0.0009726367 0.3185409 0.2802407 0.006535713 -0.6881104
此言 -0.3334543 -0.8925678 -0.4938877 0.29705057 -0.17119466 0.20241535 -0.33128843 0.3161891 0.15848723 -0.35292757 -0.41945612 -0.45272672
厉声 0.020176405 -0.881364 -0.4816319 0.38137957 0.24995758 -0.15276954 0.24681883 1.0851488 -0.20324266 -0.61878157 -0.5080281 -0.2815145
下马 0.33920032 0.13495351 -0.52495104 0.45460322 -0.48560703 -0.8230463 0.092483014 0.5930882 1.3076534 0.19825137 -0.474736 -0.6502233
中间 0.09875203 -0.3024209 -0.7329828 0.41791317 -0.24201106 -0.06398391 0.70269746 0.532304 0.50084853 -0.536494 -0.41353685 0.31662318
儿子 -0.7285898 -1.4004444 -0.7841949 0.3262817 -0.4995574 -0.26803812 -0.12113835 0.048439585 0.43425906 -0.29533818 0.02174563 0.15663524
下来 -0.33678108 -0.69984514 -0.42426053 0.95022625 -0.16230802 0.31448084 0.48462117 0.285933 -0.18838775 0.045492817 -0.57290655 -0.49803662
受用 -0.684267 -0.12426693 -0.62038213 0.32876116 -0.853679 -0.10616562 0.20283228 0.044361174 0.3420246 0.12212036 -0.8090846 -0.2758702
金光 0.41187793 -1.0197593 0.095111996 0.64643675 -0.1352377 -0.15774764 0.042043075 0.3334107 -0.36288807 -0.21816696 -0.95050275 0.14011112
出门 -0.1090547 -0.5264902 -0.56560606 0.5258083 0.22349097 0.14720088 -0.35591868 0.4115889 0.5956041 -0.8537948 -0.5178971 -0.015602223
保护 1.0039507 -0.97572076 -0.42714566 0.47401506 -0.4354012 0.5824819 -0.63141716 0.39601123 0.21370421 0.113721475 0.05117586 -0.7326619
跪下 -0.24555968 -0.8933656 -0.81621987 0.23747724 0.10721115 0.20065719 -0.4355315 0.66061485 0.38406774 -0.27959365 -0.44156072 -0.359131
方便 -0.4409952 -0.9195466 -1.1402967 0.24358198 -0.5889009 -0.4614729 -0.5219814 0.6579745 0.43750966 0.5343548 -0.018333096 -0.30154496
一遍 0.43337262 -0.65813845 -0.44036525 -0.037261307 -0.27450988 0.75587755 -0.4544471 0.59626436 0.22157954 0.030671043 -0.8781698 -0.5122307
耳朵 -0.8283423 -0.7272294 -0.5003455 0.6975547 -0.16071151 0.14414124 0.7479638 0.811349 0.20033348 -0.12259941 -0.48173985 -0.47093737
咒语 0.17826958 -0.8644298 -0.19358487 0.9339945 0.12767887 0.7963219 0.94510555 0.38158432 0.49316838 -0.20854451 -0.8128148 -0.2213627
扇子 0.08877902 -1.0174602 -0.15264352 1.8256232 -0.1750187 0.51868963 -0.23491889 -0.993741 0.18243685 -1.1375558 -0.12233439 -0.24517627
列位 -0.09703149 -0.73298895 -0.7990973 -0.1460784 -0.55074084 0.54651254 -0.16557294 0.6944775 0.12058077 0.019129662 -0.59965473 0.096389145
马匹 0.082694545 -0.23087227 -0.37724385 0.098520696 -0.593165 0.3280651 -0.012315851 0.8665023 1.164377 0.014259064 -0.3618955 -0.8749816
双手 -0.17741081 -0.9230769 -0.025404327 1.1704946 0.050963204 -0.061791975 0.40126303 0.7757571 -0.032496143 -0.7183235 -0.15858017 -0.25474265
本相 -0.41033864 -1.1136872 -0.25988677 0.93087125 0.19790831 0.041674893 0.6038497 0.69230354 0.2272159 -0.4619672 -0.35481012 -0.3022047
皇帝 -0.05171327 -0.6592321 -0.25601912 0.3391233 -0.52480537 0.096988745 -0.17933062 1.0293456 -0.83876675 0.5552311 -1.3721241 -0.6974116
不期 -0.25269338 -1.0933081 -0.5941654 -0.16741431 -0.73932624 -0.33958107 -0.83559144 0.38735667 -0.078284465 0.107912384 -0.5181577 -0.30040592
何如 -0.18831411 -0.35317987 -0.10121857 0.23982956 -0.53770393 0.09389646 -0.10459027 0.5829481 0.30311856 -0.012797525 -0.80110997 -0.5248481
灵山 1.1229107 -0.20220271 0.017760975 0.5278825 -0.73567957 -0.25029907 -0.7856012 0.48703927 0.4493099 -0.16585536 -0.20747054 -0.72372544
驸马 -0.22641398 -0.7073174 0.36599928 -0.50264806 -0.9847825 -0.41478693 0.27950054 0.4482163 -0.71511275 -0.73599535 -1.1439854 -1.4884366
童子 0.6555057 -0.98604673 -1.1333004 0.6307273 0.7692001 0.70496637 -0.41534543 -0.038353864 0.6220645 -0.067322955 -0.98270077 -0.13260047
道人 -0.26215282 -0.5510034 -0.76310664 0.8341386 0.10478507 -0.2982387 -1.1340781 0.17922443 0.46052244 -0.24479777 -1.365555 0.9070511
罗刹 0.005063529 -1.3376085 -0.41089296 1.6605693 -0.002003113 0.22986287 -0.5881406 -1.2942982 -0.006072589 -1.2868024 -0.11946307 -0.514166
身上 -0.721703 -0.48747388 -1.1488197 0.55915433 -0.107269116 0.52796936 0.8171453 0.26958096 0.16243151 -0.6226379 -0.36198547 -0.4585874
面前 -0.16675782 -0.6538389 -0.8401027 0.4280871 -0.008163118 0.04703817 0.15779346 0.7260917 0.46087238 -0.053446464 -0.33601734 -0.117833786
出家人 -0.43186882 -0.39629233 -1.2338268 0.80816954 -0.69880384 -0.32834977 -0.40737045 0.2553164 0.23457372 0.63253355 -0.009393561 -0.7245917
须臾 0.65526515 -0.22329967 -0.40786672 0.22974683 -0.21961842 0.15645564 0.3714057 0.6703743 0.43475276 -0.03616191 -0.9083122 -0.044560675
真是 0.14033803 -0.20602375 -0.29357868 0.36114833 -0.39935336 -0.5761574 -0.19171596 0.3484782 -0.02159681 -0.5453609 -0.6008051 -0.13915439
耍子 -0.5026951 -0.69610816 -0.70960176 0.33835477 -0.037686188 -0.07589116 0.3685069 -0.17023945 0.6686428 -0.07540389 -0.7581927 -0.46102232
一件 -0.9138494 -0.321073 -1.2006841 0.5028398 -0.5569423 0.48294213 0.04233198 0.4502525 -0.37573949 -0.273241 -0.52561724 -0.0058548646
齐天大圣 0.6177456 -1.2794603 -0.39906323 0.15163392 -0.2935771 0.03917021 -0.4716691 0.61219925 -0.13902497 -0.47089326 -0.22677939 0.20916125
起身 -0.37548104 -0.3780315 -0.57584846 0.5597575 -0.24815345 -0.0678827 -0.3110219 0.64296645 0.34955734 0.18636547 -0.53060704 -0.62446576
雷公 -0.08813855 -1.3574322 -1.1113082 -0.19157664 0.01967563 0.06891724 -0.28980803 0.87637097 -0.13451296 -0.5580044 -0.5100721 0.58964765
昨日 -0.21045017 -0.87806946 -0.58388484 -0.09867314 -0.08884308 0.33820933 -0.5520059 0.61930263 0.4265385 -0.52825993 -0.58056295 -0.19379304
包袱 -0.37279037 -0.67273307 -0.6446031 0.35968733 -0.20996681 0.35086557 0.24831918 0.66673857 0.7778862 -0.09079539 -0.29005578 -0.6312245
看处 0.2065398 -0.37210944 -0.63404834 0.37699193 0.13108814 -0.6822433 0.65203476 0.86750245 0.6280199 -0.35819846 -0.7227394 0.18098398
魔头 0.13185333 -0.92873776 0.06109696 0.8498387 -0.32052374 0.6875189 0.14236099 0.5978685 0.5098947 -1.1263134 0.061099548 -0.04203314
合掌 0.616076 -0.1693158 -0.8868226 0.7499701 0.08253617 -0.06400541 -0.5268146 0.9995299 -0.32555836 0.19838232 -0.6084596 -0.60236436
一下 -0.1034886 -1.0267522 0.21530165 0.8861018 -0.25105977 0.15537749 0.53239703 0.5947124 0.65883714 -0.3635078 -0.5496159 0.25821364
路上 0.096355364 -0.66069543 -0.26286465 1.0845103 -0.59201765 -0.41857317 -0.36177394 0.50647956 0.6400468 0.11483314 0.27430052 -0.22447854
三人 -0.08012076 -0.0839847 -0.15745698 0.16912395 -0.4882547 -0.049764857 0.12023195 0.9348327 0.6769475 -0.38635463 -0.51874185 -0.6435552
将身 0.2392838 -0.5795234 -0.052088507 0.76413816 -0.28964216 0.4431389 0.97250026 0.3464954 0.14243312 -0.70204335 -0.56111586 -0.19899818
当年 0.79727906 -0.9127219 -0.3176788 0.6495978 -0.25441784 0.24831621 -0.47789627 -0.0033647167 -0.036437415 0.021211747 -0.36897153 -0.38212615
头上 -0.384946 -0.6640577 -0.840589 0.9592665 -0.002975303 -0.1553302 0.68524325 0.2602054 0.41640913 -0.32542273 -0.042517595 -0.51450366
磕头 -0.47427717 -0.7702272 -0.6099539 0.060761537 -0.2526266 0.45609942 -0.7846716 0.5091568 0.8074638 -0.32581127 -0.64736277 -0.12763344
摇身一变 -0.40190482 -0.81775236 -0.44391072 0.8147986 -0.18210559 0.021772066 1.0110676 -0.00831356 0.23360841 -0.5650472 -0.4846511 -0.14864692
洞口 0.27858934 -0.6105586 -0.38902494 0.51101446 -0.050503206 0.31507784 -0.022855872 0.21552908 0.85096484 -1.4216537 -0.30761078 0.35147738
天地 0.78800017 -0.55113304 -0.03965004 0.7823853 -0.8113165 0.04475811 -0.4878111 -0.43392402 -0.11230674 -0.40990716 -0.50281996 0.13543628
无礼 -0.38416132 -1.5544984 -0.010838533 0.8766145 -0.045110933 0.01573971 -0.052076094 0.02556005 0.61171395 -0.7541762 -0.14471342 -0.17055985
孩儿 -0.44509658 -1.2626914 -1.1592057 -0.1594743 -0.25371245 -0.38103354 -0.6483399 -0.051070802 -0.34823015 -0.35336277 -0.57406574 -0.32468694
便是 -0.026129274 -0.65958035 -0.5161324 0.4270243 -0.13522553 -0.05945481 -0.23903659 0.35684773 0.17643464 0.24206121 -0.7872713 -0.28407377
御弟 -0.39161417 0.02313285 -0.6596459 0.74300474 -0.4745778 -0.82257974 -0.81454515 1.2543176 -0.77926326 -0.47818846 -0.26576248 -1.838046
答应 -0.5876289 -0.7924715 -0.6261555 0.43479478 -0.06119068 0.27336136 0.28081405 0.3270628 0.6383332 -0.3612015 -0.54400885 -0.37471044
三年 0.20305708 -1.1930623 -0.81198996 0.0073429886 -0.8680755 0.051628117 -0.3028349 -0.19584821 -1.1308912 0.53780943 -1.1119182 -0.50793964
老怪 -0.90373176 -0.5679325 0.019034298 0.72855985 -0.27804667 0.34907654 0.10692727 0.45083764 1.1303122 -1.6120207 -0.31676045 -0.23511261
倒换 -0.19582194 -0.20480984 0.009893806 0.25472176 -0.8077063 -0.5300187 -1.1618972 1.3399462 -0.47907043 0.051356167 -1.1441998 -1.5412769
躬身 0.34772816 -0.4989334 -1.1593345 0.73728585 0.45984644 -0.39234516 -0.55526525 0.41460112 -0.35489088 -0.12854828 -0.56937546 -0.45487398
唐朝 0.0866727 -0.4540653 -0.43747455 0.48977166 -0.59304804 -0.43331116 -1.0378227 1.0323344 -0.5808914 -0.055652253 -0.30610487 -0.9629212
胡说 -0.72657573 -0.9213472 -0.4607236 0.47328532 -0.80290717 0.012798428 -0.17424262 -0.28296918 0.61298853 0.5789094 -0.6332802 -0.71252555
那厮 0.10160784 -1.5566541 -0.8869167 0.120539665 -0.051392075 0.22258045 -0.6680141 0.2586305 0.1947908 -0.019194836 -0.24861538 -0.1679217
下去 0.045019146 -0.7496158 -0.41243914 0.5736869 -0.1327226 0.3296361 1.052982 0.51309866 0.28892997 0.3130286 -1.0233363 -0.13434593
四个 -0.68193394 -0.5969637 -0.71529496 0.5192358 0.07565151 -0.20459668 -0.42486724 0.6814236 0.19649298 -0.06888676 -0.9306421 -0.043989044
之意 -0.06666783 -0.56374776 -0.3433836 0.64256155 -0.14311738 -0.07982084 -0.5702199 0.14141165 -0.26837963 -0.114197545 -0.7112128 -0.9314332
教他 0.15016018 -0.90818363 -0.5595541 0.24278037 -0.11486769 0.44677222 -0.13428275 0.38991168 0.49261203 0.03255693 -0.52214944 -0.39618993
转身 -0.004488119 -0.58224607 -0.09003561 0.9154769 -0.057054706 0.099281244 -0.044234015 0.6941792 0.3049901 -0.46254945 -0.38513675 -0.031999577
现了 -0.19644594 -1.0223342 -0.27402666 0.77318245 0.21823543 0.09562657 0.6416257 0.8144427 0.01724034 -0.5461202 -0.3798086 -0.36593068
群妖 -0.06415122 -0.8859366 -0.13558914 0.27846044 -0.14458695 0.46257594 0.46623966 0.62592864 0.30242825 -1.4252597 -0.42218944 0.060879745
就要 -0.57864654 -0.8952215 -0.367731 0.35252884 -0.30305055 0.3890777 -0.0034254333 0.3891133 0.31860915 0.3418187 -1.0208583 -0.31931344
大路 0.22575149 0.22863054 -0.27617007 0.4962409 -0.9727815 -0.05986842 -0.15659635 0.5483374 1.234383 -0.20942675 -0.13956852 -0.5391211
正在 0.26183346 -0.45868352 -0.35763264 0.21198063 -0.20223053 -0.10169339 0.07489059 0.50221103 0.45259395 -0.66931444 -0.3388924 -0.20488638
拿来 -0.77620745 -0.9313393 -0.5113542 0.48356524 -0.29750416 0.2721756 -0.26768845 0.2854208 0.26996955 -0.65184146 -0.25046188 -0.17808798
驾云 0.57312936 -0.9362837 0.3236484 0.41736186 -0.33734772 0.12143578 0.24882129 0.6851047 1.1242561 -0.2612721 -0.40464932 -0.26707697
且莫 -0.65502065 -0.7622534 -0.4244259 0.4281741 -0.40160128 0.093821555 -0.019604873 0.19081512 0.44809416 0.03495028 -0.6492679 -0.47943524
一定 -0.49557963 -0.69788724 -0.26647386 0.45401743 -0.7495341 0.11735213 -0.11323091 -0.11800922 0.4842252 -0.12367928 -0.2837359 -0.623552
父王 -0.005120483 -1.3351649 -0.8296043 -0.44542876 -0.21287654 0.52225876 -0.59020764 0.024439197 -0.79049426 -0.9666182 -0.8531182 -0.8129637
听得 -0.31938934 -0.6123498 -0.38005087 0.43879023 -0.013402008 0.1602715 0.20561458 0.83940417 0.36361048 -0.34492242 -0.56188184 -0.49774897
一阵 0.36980304 -0.7977569 -0.14828786 0.079047106 -0.88691294 -0.17239945 0.41350222 0.19934471 -0.0054288567 -0.26458395 -0.64958036 0.43545705
一顿 -0.72824824 -0.7368117 -0.8058146 0.60560834 -0.25683329 0.001951268 0.1919247 0.37308553 0.538921 0.026915165 -0.2763686 -0.33990183
一路 0.19498545 -0.8536988 -0.13134624 0.4100972 -0.7699977 0.08997047 0.18014741 0.4368632 0.61670804 -0.1695197 0.055834785 -0.15689906
山门 0.77505285 0.12318412 -0.5314218 0.5055223 0.1400599 -0.29944444 -0.7928817 0.925056 0.63882244 -0.11403986 -1.1011695 -0.03814678
金刚 1.7457938 -0.40162042 0.429638 1.0637902 -0.2252143 0.16569522 -0.6516859 0.57405025 0.50276726 -0.6944342 -0.55921036 -0.17117262
之间 0.5500328 -0.31114104 -0.33616588 0.19280048 -0.6381772 0.01612273 0.042012468 0.15343463 0.09453915 -0.336897 -0.4461652 -0.46733758
即命 0.17086692 -0.20694745 -0.3381613 0.097173825 -0.08828277 0.13583253 -0.50558513 0.7473573 -0.22474495 -0.32029167 -1.1986499 -0.68333524
山中 0.30951425 -0.49674606 -0.42874518 0.32841143 -0.7166941 -0.55529815 -0.33592775 -0.121381424 0.48596907 -0.42905155 -0.26829308 0.0518642
礼拜 0.2811949 -0.1854487 -0.83741426 0.07828792 -0.18363807 0.56629986 -0.41474545 0.70290035 0.2929912 0.00553107 -0.8325652 -0.408374
猴王 -0.09525397 -0.91328484 0.17376226 0.927637 -0.34713665 -0.1283395 0.19049187 0.2945657 0.25482702 -0.83582133 -0.061917976 -0.27569845
不觉 -0.1983369 0.36629626 -0.27028707 0.45795736 -0.7632607 -0.13870509 0.3111043 0.33651808 0.6087737 -0.65316266 -0.5240229 -0.36839148
唐三藏 0.42857006 -0.24942584 0.062406693 0.74350536 -0.38030872 0.044347562 -0.5569202 0.25952822 0.4952118 -0.13225083 -0.6672038 -0.46203595
不多时 0.4690511 0.072034225 -0.5650069 0.35266486 -0.20526418 -0.10408549 0.16664146 0.5520899 0.6021144 -0.36665666 -0.47889277 -0.46599737
施礼 0.89561456 -0.8790335 -0.8697087 0.22974531 0.52065545 0.27088654 -0.3431292 0.7862521 -0.20030065 0.0015380926 -0.86951536 -0.45194304
保唐僧 1.0115155 -1.4415005 -0.2274294 0.19601735 0.012566018 0.054091062 -0.69185126 0.30209425 0.21489525 -0.74179745 -0.19530554 -0.19418837
后面 -0.35614008 -0.16472255 -0.94769007 0.20626904 0.17242633 -0.014179242 0.12167942 0.6339555 0.43060002 -0.30679762 -1.0186728 -0.2864979
吆喝 -0.21255295 -0.796091 -0.12931602 0.34586284 -0.34183592 -0.4233726 0.59834003 0.81189114 0.36675552 -0.8404193 -0.16584173 -0.07346189
祥光 1.090119 -0.68254447 -0.14073274 0.1727014 0.18508857 0.3838069 0.3218368 0.4741436 0.55369544 -0.54671955 -1.0058906 -0.10449214
王道 -0.27458838 -1.6932477 -0.50318307 0.36018723 0.2024526 0.3356884 -0.51930785 -0.067052014 -0.53819084 -1.1893706 -0.6067505 -0.34102646
王子 -0.6215284 -0.06530474 -0.10505926 0.42712533 -1.0972118 0.89030665 -0.75495654 1.7864852 0.2218306 -1.0958799 -0.4505298 0.46465215
一会 -0.41624215 -0.5591845 -0.53837544 0.60662377 -0.29853573 -0.009250394 0.44344065 0.1433172 0.5283988 -0.30085212 -0.42737973 -0.22093199
跳出 0.0021839477 -0.7913792 0.18209325 0.80579555 -0.20137674 -0.102098785 0.50307256 0.5587727 0.428298 -0.9096422 -0.23254149 -0.049831983
烦恼 0.01694716 -0.9999571 -0.72646904 -0.11952584 -0.2227869 -0.115544386 -0.46296546 0.08369678 0.13388169 -0.47370592 -0.34078002 -0.51716447
有何 0.11416127 -0.28155977 -0.9756862 0.4979853 -0.27848098 0.06117363 -0.47340494 0.30392382 -0.022391843 -0.08264292 -0.33026344 -0.4360257
手中 -0.13097635 -0.63029337 -0.6565219 1.050503 -0.10875867 0.2790441 0.7769655 0.5246034 -0.3778726 -0.68449736 -0.17679389 -0.09176273
相见 0.16960195 -0.47549018 -1.0918279 0.03479165 -0.33977768 -0.06889383 -0.6997827 0.7444836 -0.24047248 0.064443566 -0.43633434 -0.34456062
奈何 0.07104334 -1.0019904 -0.3037532 0.21676736 -0.38195795 -0.0012654793 -0.15400983 0.1759959 0.17216775 0.003846097 -0.5652656 -0.3911796
按落 0.68482983 -0.71724296 -0.054649662 0.326219 0.1705066 0.17459069 0.59554225 0.79519415 0.7334971 -0.43708548 -0.8370589 -0.24631993
做个 -0.40105847 -0.83552414 -1.1492577 0.22892514 -0.5868853 0.5754442 0.4348198 -0.10576857 0.845505 0.2455764 -0.19836469 -0.5376943
放在 -0.5831716 0.014190956 -0.9308241 0.81117487 -0.25670397 0.76830965 0.0885818 0.57986414 -0.061754264 -0.40455565 -0.7423097 -0.009184375
方丈 -0.5307384 0.10349594 -0.8452325 0.4444998 -0.039766103 -0.18740663 -0.6857445 0.93702817 0.9013182 -0.18136464 -1.5913615 0.6937152
地下 -0.3462394 -0.8350146 -0.24299768 0.6944358 -0.14696263 0.2516326 0.6523277 -0.05872833 0.69007266 -0.32117042 -0.6641191 -0.21703131
神通广大 0.19897765 -1.6103574 -0.2935078 0.31285673 -0.620315 0.6143323 -0.6930765 0.10232297 0.049741708 -0.48192197 -0.062117036 0.26609167
文武 -0.19354993 -0.15519075 0.17754912 0.5057375 -1.0181462 -0.05215809 -0.06026305 0.78795886 -1.0353283 -0.016617995 -1.4254534 -0.9670123
为证 0.8262279 -0.23057346 -0.5669737 0.3983616 -0.61838746 -0.18654409 0.3422308 -0.42851388 0.41875416 -0.2011061 -0.42256454 -0.46681717
一一 0.11412434 0.08857216 -0.6879827 0.35168985 -0.6854903 0.43869567 -0.6489263 0.43032393 0.25646994 -0.042107858 -0.4104959 -0.602274
前来 0.10429432 -0.5933545 -0.35811836 0.11772141 -0.5072998 0.18742913 0.49227512 0.42090178 0.44406623 -0.3709527 -0.33486223 -0.23752548
战兢兢 -0.49687046 -0.89290017 -0.5739559 0.25588512 -0.42465293 -0.40917423 0.12664825 0.67246646 0.12901093 -0.15643965 -0.13461176 -0.5940113
坐下 0.06614495 -0.11207019 -0.9236864 0.54387313 -0.008203992 0.078261584 0.095243074 0.8475575 0.026736515 0.3655121 -1.0271704 -0.10136415
半空 0.64027846 -0.91099656 0.32875735 0.52580374 -0.20182446 -0.05158186 0.5409562 0.6502942 0.24163707 -0.17911936 -0.8470312 0.09479452
老君 0.8087077 -1.1866282 -0.82788557 0.9341799 -0.15361097 0.9297019 0.47084314 -0.76077455 0.04335488 -0.5895162 -0.71884245 0.59404033
父母 -0.39502463 -1.1457086 -0.48006663 -0.09762584 -1.0817165 -0.4913943 -0.9615945 -0.78521186 -0.0104681635 -0.027033558 -0.68637323 -0.77766335
嘴脸 -0.9813907 -0.8828185 -0.6087716 0.45351815 -0.336697 -0.50052065 0.29432467 0.070461005 0.32784635 -0.23578732 -0.34918907 -0.7627639
不用 -0.2418884 -0.7319782 -1.2057246 0.4050564 -0.6883083 0.7079113 0.4233808 0.2655852 -0.033619758 0.7604525 -0.5501115 -0.26437688
路旁 0.11181943 -0.2796922 -0.69130665 0.77019143 -0.15825835 -0.08526013 0.5111031 0.37463483 1.1002271 -0.29675588 -0.048122447 -0.42941454
放下 -0.31741247 -0.6499235 -0.612696 0.598721 -0.38069206 -0.078868575 0.480372 0.38066706 0.50126153 -0.023564143 -0.1361971 -0.39711958
前面 0.07581463 0.44341013 -0.58536047 0.41185436 -0.503167 -0.54964703 -0.11734937 0.61167675 0.9379543 -0.41461274 -0.6068889 -0.28199166
大喜 0.06939943 -0.18112962 -0.13321505 0.22063048 -0.34868473 0.2999623 -0.22639051 0.8268074 -0.16077751 -0.26798415 -0.9020502 -0.9216258
两边 0.18368785 -0.19573127 -0.6210059 0.45244214 -0.07280584 -0.5397218 0.70423335 0.6802517 0.13168028 -0.027838266 -0.89298075 -0.089446165
干净 -0.49086002 -0.5670665 -0.41958398 0.39665768 -0.55743676 0.011669618 0.15618022 0.058963314 0.76428926 -0.016447019 -0.5908842 -0.17556968
直至 1.1373601 -0.4620611 -0.6610433 -0.12744711 0.28155866 0.24770792 -0.30362976 0.39245617 0.450107 -0.64579403 -1.0641444 -0.24389529
走上 -0.29628947 -0.5610466 -0.6191402 0.9026043 -0.15376084 -0.16416901 0.45255858 0.49139518 0.23787217 -0.22262157 -0.31269562 -0.00926937
上马 0.13645563 -0.09753289 -0.4189135 0.43870077 -0.6883414 0.18936907 0.047124684 0.4079852 1.3379421 0.18476276 -0.20364656 -1.1652652
仙气 -0.56735176 -0.5173929 -0.620455 1.3914411 -0.21672407 1.2464837 1.2751294 0.76970786 -0.25624558 -0.28214112 -0.63189435 -0.50019413
使个 -0.56833893 -0.88490933 0.08002554 0.45710117 -0.39226854 0.12173944 0.66594744 0.8266597 0.4072061 -0.27355003 -0.7234472 -0.15173335
莫想 -0.27360636 -1.0046414 -0.14595796 0.7302405 -0.5198148 0.39604437 0.19169597 0.2790805 0.4933712 -0.1429868 -0.22327489 -0.017396543
山坡 -0.010093031 -1.0329022 -0.012458657 0.40207586 -0.1433781 -0.15467165 0.4692886 0.88442105 0.749221 -0.5264411 -0.23127478 -0.27577305
宝杖 0.3015881 -1.3139381 0.8165058 0.8296663 -0.8565968 -0.5033037 0.31881106 1.2578298 0.60368824 -0.44354084 0.1799809 -0.04567003
猢狲 -0.32999587 -1.477132 0.08674957 0.9929743 0.19131365 -0.64441687 -0.26387933 -0.3360417 0.27952152 -0.70315933 -0.3754415 -0.60328424
惊动 -0.13028765 -0.34141275 -0.5016398 0.36373746 0.14854369 0.1230757 -0.055954464 0.63324165 0.23148027 -0.27233848 -1.1971834 0.05007283
前进 0.6260577 -0.13466081 -0.20959623 0.7039776 -0.55437475 -0.11029945 -0.021107502 0.11541177 1.0887316 -0.17079832 -0.22499868 -0.42961654
轻轻 -0.45059094 -0.50236326 -0.5339388 0.7829582 0.114393026 -0.022494346 0.95013094 0.5252396 0.15304215 -0.72722864 -0.78168184 -0.013662552
天宫 1.1238546 -1.4430445 -0.081586294 0.12710275 -0.3486852 0.15612443 -0.2162354 -0.19034316 0.015228647 -0.6271745 -0.33247966 -0.27928898
闻得 -0.020347476 -0.55605894 -0.27240258 0.6755449 -0.5845423 0.06323718 -0.26558954 0.28912705 0.13590077 -0.13793494 -0.21293242 -0.20748092
老儿 -0.10936653 -0.6376291 -1.4625744 0.23403731 -0.6693648 -0.016381817 -0.102200255 0.29795244 0.72824913 0.37817422 0.13006198 -0.13131273
打个 0.01544843 -0.7227218 -0.30641994 0.9331805 -0.04671709 0.11054112 0.39506337 0.9053371 0.11208765 -0.16479754 -0.15401395 -0.327848
用手 0.3037486 -0.5779999 -0.94941664 0.7525776 0.27982086 0.033484522 0.33591992 0.38434333 0.42857635 0.064298004 -0.5090367 -0.14907299
半空中 0.47036138 -0.6822442 0.0055251764 0.422754 -0.5081294 0.017873758 0.5775588 0.83474714 0.10691731 -0.22903498 -0.41304773 -0.061908282
孽畜 0.13981606 -0.99613017 -0.14404021 0.4943396 0.16357613 -0.024333531 -0.049924895 0.36614195 0.50467694 -0.8588486 -0.56930214 0.19334394
下界 0.87841606 -1.1540306 -0.87248456 -0.8736567 -0.7117696 0.7970976 -0.5395362 -0.10443989 -0.116746925 -0.91899526 -0.7167268 -0.344208
老师 -0.2316136 -0.14283894 -1.1268708 0.34599766 -0.5311491 -0.026950683 -1.499803 0.4703228 -0.13506776 0.20391814 -0.8531764 -0.32155758
哪吒 0.8487147 -1.4149938 -0.9061943 -0.09539434 -0.26837704 1.0146214 -0.016497035 -0.11716418 -0.369273 -1.406642 -0.7019515 0.6649178
法力 0.49262527 -0.8687129 0.33023772 0.9435594 -0.5218294 0.71564233 -0.47536746 0.37779945 -0.33577108 -0.018405043 -0.7539573 -0.27384028
先生 -0.23379119 -1.3607234 -0.08784956 1.4257663 0.45146516 -0.5652182 -0.70697385 -0.17246166 0.2634864 0.43623972 -1.4977034 0.3074512
里边 -0.57788575 -0.6379024 -0.75253236 0.6429116 0.29143897 -0.2805156 0.2911688 0.6228484 0.45748687 -0.72050774 -0.45618156 -0.15892616
果子 -0.16266459 -0.4391294 -1.0911726 1.7592717 -0.044794735 -0.07955978 0.22276865 -1.2060782 0.30833727 0.63746387 -1.3287417 -0.21707067
老魔道 -0.91264737 -0.9472666 0.05484594 1.6644658 -0.56477326 1.1101822 -0.09700283 0.20943469 0.579515 -1.5143085 0.3831963 -0.6987723
过来 -0.6417757 -0.40683615 -0.49709022 0.8031213 -0.2811716 0.06469551 0.6382688 0.16904692 0.42019597 -0.5567045 -0.41251054 -0.23705837
五百年 0.40571058 -1.4079798 -0.622912 0.6507374 -0.40108037 0.079771556 -0.47548485 -0.26520845 -0.13303804 -0.32070884 0.29388005 -0.43641448
求经 0.84896135 -0.695497 -0.7480761 0.82699215 -0.32091224 -0.39036247 -1.1554645 1.1316379 -0.08399121 0.4271525 0.12481248 -0.83282137
南海 1.4045558 -1.3069123 -0.5222383 -0.042869978 0.2575284 0.27221572 -0.36023816 0.57812476 0.92811894 -0.39181238 -0.35094067 -0.3822697
正果 1.1595151 -0.8385656 0.029130377 0.85998493 -0.5117696 0.7520458 -0.5221457 0.08727658 0.62684363 -0.26414534 0.11469452 -0.9295905
不须 0.32775885 -1.0597281 -0.39640856 -0.058793925 -0.71250623 0.68582875 -0.31981018 0.30117315 0.33806992 0.05976822 -0.5458576 0.20080756
门首 -0.21823528 -0.65041554 -0.8466547 0.3257924 0.09917953 -0.8376328 0.3322146 0.4301825 0.7696448 -0.21868601 -0.4553522 -0.2581539
祥云 1.0268444 -0.16697775 -0.44037387 0.60848314 0.30795997 0.46709624 0.21785676 0.34524697 0.78472185 -0.84125644 -0.81216085 -0.011367416
多官 -0.28033987 0.10765509 0.5358383 0.090314806 -1.0507268 -0.27451 0.04048059 0.9902262 -0.6315188 -0.32813093 -1.7771983 -1.2913855
寡人 0.07561413 -0.6398732 -0.19445218 0.31296623 -0.6634113 0.06126629 -0.007822554 0.83561265 -1.4915228 0.17988707 -1.4501989 -1.191991
主公 0.08774514 -0.2529124 -0.08953588 -0.14558205 -0.31071082 -0.15298371 -0.45663393 1.0141075 -0.5786501 -0.78184855 -1.0786937 -1.5572464
樵子 0.18351822 -0.10929913 -0.9989207 1.0079412 -0.8585716 -0.36325476 -0.57561225 -0.59440404 0.9547197 -0.4127714 0.17847614 0.40150484
迎接 0.20743388 -0.2125121 -0.9541368 0.23480739 0.41050655 -0.25789744 -0.54340047 0.9481243 -0.28218827 -0.553376 -0.94483936 -0.3898086
化斋 0.05374324 -0.71879107 -0.9173545 0.7170409 -0.39263856 -0.43623364 0.12020354 0.6939506 1.4052036 0.74920243 0.23010468 -1.0912638
伏侍 -0.5090928 -0.238282 -0.74355274 0.16366673 -0.40030256 0.12572987 -0.20196272 0.63585246 0.41108832 0.11254867 -0.8622171 -0.6085826
端的 -0.24825136 -0.30062133 -0.28081506 0.2939695 -0.69917876 0.009696588 -0.31757393 0.67125636 0.42748386 0.1420776 -0.5451718 -0.61734426
女王 -0.13454464 0.24110726 -0.58682525 0.6537857 -0.8722917 -0.50672704 -0.51629287 1.305861 -0.9319744 -0.5752948 -0.31050542 -2.239025
无人 -0.13315685 -0.5507298 -0.36960438 0.21682929 -0.33012 -0.27577218 -0.016923921 0.052555073 0.4151776 -0.6324588 -0.45186323 -0.266658
母亲 -0.9434158 -0.7921869 -0.9918719 0.088791996 -0.7187493 0.29000682 -0.39531952 -0.12020091 0.048328202 -0.67803276 -0.21094112 -0.512329
观音菩萨 0.8447919 -1.4580028 -0.76532185 0.16466779 -0.027457062 0.35083973 -0.564527 0.30459163 0.5441264 0.06027771 -0.09570733 -0.508138
大哥 -0.032354042 -0.7255095 -0.10939859 0.482808 -0.2582673 -0.17564344 0.14013709 0.16840166 0.8926829 -0.19622828 -0.27210656 -0.7621916
直裰 -0.5057891 -0.3612631 -0.99718714 0.87567014 -0.48070362 0.52162915 0.74314135 0.7271961 0.55861247 0.15878041 -0.033435293 -0.3157723
这是 -0.4563661 -0.50264144 -0.26506093 0.4859805 -0.4785799 0.27055225 0.3823652 0.29371163 0.70452666 -0.34440604 -0.46147338 -0.20040134
只怕 -0.6049694 -0.9617235 -0.31066227 0.90253174 -0.41258898 0.118633896 0.22793354 -0.027079312 0.4230878 -0.3276427 -0.08754792 -0.53813726
大怒 -0.5805004 -1.5595711 -0.33875126 0.58867544 0.06654968 -0.2628679 -0.15356946 0.18906756 0.2505594 -0.6370397 -0.35086557 -0.07966411
大惊道 -0.43825963 -0.57397044 -0.60888636 0.678761 -0.07441419 0.5594803 0.1919254 0.51880115 0.7430429 -0.42667612 -0.2682499 -0.32541764
旁边 -0.56279796 -0.5953022 -0.5484419 0.7675246 0.23049358 0.36018297 -0.04469299 0.49305803 0.6973729 -0.42388707 -0.5701836 -0.3649696
天门 1.3490975 -1.0961452 -0.068928994 -0.5390084 -0.32246152 0.71737754 0.21865605 0.40982857 0.14811896 -0.88021946 -1.0576273 -0.29650718
一行 0.2836993 0.016570209 -0.62581944 0.31803223 -0.27743077 -0.76852775 -0.37135407 0.6487501 0.42834297 -0.13733356 -0.47053644 -0.66627806
外面 -0.5949673 -0.45178238 -0.5650141 0.23991944 0.09574716 -0.29206604 -0.29496014 0.8076826 0.24310814 -0.527413 -0.9737025 -0.030207217
迎着 0.2851524 -1.0647311 -0.47370914 0.16584198 0.29233563 0.53768736 0.34680408 0.6438777 0.3175172 -0.2593424 -0.8091927 -0.2689318
腰间 -0.6538546 -0.72309035 -1.0054647 0.9300831 -0.035768192 0.05701414 0.8890512 0.6068415 -0.6580857 -1.0490706 -0.2746948 0.25508353
金箍 0.18198718 -1.1307361 -0.16651416 1.049076 -0.26347053 0.49026775 -0.09844744 0.536881 -0.11064086 -0.69830656 0.06720254 0.23685946
棍子 -0.781743 -1.4749404 -0.703832 0.45600984 -0.22309527 0.46222663 0.48122412 0.51670915 0.023778299 0.040861055 -0.6980793 0.2615392
钵盂 0.70905346 -0.42853165 -0.94524866 0.58439815 -0.34377185 -0.133073 0.32180098 0.831628 1.173216 0.4611038 0.21204612 -0.8112746
拿出 -0.8021377 -0.62726295 -0.90811044 1.2222322 0.11500594 0.4482754 -0.09965988 0.30982134 -0.059951052 -0.03105408 -0.6179737 -0.34323236
僧人 -0.12887818 -0.64162374 -0.23352917 0.23613521 -0.44053254 -0.16499554 -0.79373264 0.9549772 -0.36103684 0.389953 -1.3865913 -0.13951704
山头 0.6416164 -0.016314846 -0.31515622 0.80201393 -0.53129643 -0.29834622 0.3404067 0.32475305 0.5286733 -1.1191983 -0.20322971 0.51363534
天尊 1.0574473 -0.87784326 -0.82548887 0.025258597 -0.03509978 1.3315153 -0.11337759 0.23335454 -0.1056723 -0.027635796 -1.646523 0.3665908
一块 0.14382331 -0.49920034 -0.7676667 0.7204922 0.12571503 -0.7100927 0.29105467 0.7494127 0.23351954 -0.3768129 -0.24213886 0.10020641
果是 0.20395242 -0.46793306 -0.5046455 0.24054798 -0.34114617 0.14919373 -0.47984758 0.25665885 0.24794091 -0.1603146 -0.6909551 0.02629742
天明 -0.25980335 0.14544393 -0.07597267 0.25125462 -1.0795624 0.15839127 -0.15501036 0.35641605 0.75896883 -0.17085464 -1.0323224 0.27385458
心惊 0.25673786 -0.14775802 -0.43838182 0.72022426 -0.46803018 -0.07796167 0.41789046 0.74953777 -0.12034717 -0.25204647 -0.110050485 -0.49780437
不吃 -0.76833385 -0.6729703 -0.9603003 0.569144 -0.46546054 0.42463264 -0.16600177 -0.40202987 0.34793395 0.16094948 -0.55123556 -0.9127803
害怕 -0.40055054 -0.6843793 -0.3786455 0.6138574 -0.30361488 -0.032104716 -0.2191657 0.3914847 0.5723521 -0.20537497 -0.3651909 -0.00019349973
筋斗云 1.0032883 -0.99382365 -0.33937097 0.03113955 -0.0036492078 0.4489519 0.10668213 0.3988695 1.1679456 -0.4340231 -0.49154374 -0.21574168
皈依 1.3459773 -0.8500018 -0.45809332 0.75961393 -0.22221144 0.57425624 -0.84464306 0.28777647 -0.08684024 0.017531373 -0.2426598 -0.5741942
之上 0.25379628 -0.2620806 -0.66812074 0.439764 -0.07943792 0.14138953 0.397856 0.5923509 -0.01471432 -0.2635178 -0.64773583 -0.22856697
相貌 -0.39606956 -0.64311016 -0.8767603 0.35023504 -0.27951577 -0.88158673 -0.55233866 0.9731173 -0.17721146 -0.21508192 -0.03773313 -0.8647439
银子 -1.4313117 -0.67498964 -1.4954975 0.13137896 -1.6091105 0.12957694 0.14950001 0.38075614 0.13589793 0.124121055 -0.21069135 0.4895717
没奈何 -0.24067801 -1.1007625 -0.49999282 0.45204183 -0.46261138 0.14176542 -0.19571383 -0.35869473 0.28167635 0.14652134 -0.4972678 -0.41609752
贤弟 -0.7694732 -0.33507246 0.044152796 0.9569823 -0.82912153 0.34486452 0.2798199 0.13149974 0.78651446 -0.13848925 -0.32460716 -0.8320914
先锋 -0.4567754 -1.2880019 0.06041263 0.6548824 -0.17237426 -0.31174162 -0.42543608 0.9568266 -0.17025866 -1.5526857 -0.08059314 -0.01863995
利害 0.22961162 -1.265666 -0.13101457 0.6703023 -0.33079335 0.21374363 0.2702015 0.83320886 0.120004125 0.00114707 -0.35997477 0.5178834
名字 -0.64836067 -1.1141593 -0.70686007 0.7416153 -0.64895105 0.13107814 -0.439117 0.09205127 -0.41193914 -0.55939215 0.11508766 0.11219648
驿丞 -0.31711555 0.21382597 -0.4148467 0.621281 -0.6836773 -0.3397824 -1.3215 1.158373 -0.2799374 0.13130492 -1.0205562 -1.5741819
花果山 0.9507984 -1.2359279 -0.05282862 0.26349992 -0.6019865 -0.040216316 -0.20650044 -0.44770163 0.8800885 -0.5270682 0.020017391 -0.63777155
慌忙 -0.08837584 -0.5695102 -0.53700304 0.48703113 0.17957698 -0.056967795 -0.035938885 0.5860907 0.5735637 -0.46630418 -0.43922597 -0.32531312
随后 0.4284925 -0.79147744 -0.07241899 0.46715575 -0.14845377 -0.024617366 0.6057725 0.62430555 0.34303972 -0.35258353 -0.47592357 -0.050745763
南无 2.85751 -0.32705128 -0.00076537335 1.6281722 -1.7172195 0.9171031 -0.745851 0.7414587 1.0503874 0.5958981 -0.48069626 0.434013
自有 -0.0072452347 -0.17665422 -0.59689844 0.5000657 -0.38619095 0.3724855 -0.088540606 0.7360259 0.43487123 -0.14309253 -0.22465819 -0.65323126
依言 0.1715865 -0.24420917 -0.63408846 0.059068657 -0.30827895 0.21809596 0.035096053 0.40576816 0.47601232 -0.1349641 -0.6322828 -0.6970691
施主 -0.1527649 -0.4333625 -1.4811947 0.7477277 -0.48398477 -0.9980664 -0.5180139 1.2183588 0.5585 0.82780015 0.12361027 -0.23262575
真经 0.87630486 0.17056994 0.0885127 0.95641375 -0.837926 -0.2283985 -0.9258071 1.118697 -0.023963537 -0.041564647 -0.33529708 -0.8238025
狂风 0.28252405 -0.75723404 0.25430298 0.35230172 -0.9278999 -0.26588255 0.557771 0.32807356 0.17531298 -0.35610133 -0.7396924 0.571502
还要 -0.14129423 -1.1574634 -0.2587887 0.7395788 -0.24546808 0.19077773 0.10724268 -0.13369845 0.123635024 0.43643224 -0.8642899 -0.2789319
说出 0.11008511 -1.1374311 -0.5127423 0.47703537 -0.06676303 0.044547442 -0.54513836 0.48917285 -0.18241236 -0.24444005 -0.07268778 -0.69196653
小儿 0.58808774 -0.7136227 -0.30979797 0.16550653 -1.2914754 0.680858 -0.84981906 0.1427521 -0.7659608 0.43948945 -0.95787406 -0.9420706
连忙 -0.21372738 -0.46559137 -0.33332255 0.59728855 0.35755622 -0.10242402 -0.45561695 0.7320597 0.6857882 -0.31698582 -0.8140499 -0.69337726
明白 -0.13332091 -0.6161788 0.07170706 0.833606 -0.39434868 -0.09103013 0.037716705 0.22396891 0.08702776 0.13558955 -0.88523537 -0.16512991
特来 0.67632127 -1.1986648 -0.9228418 -0.29232746 -0.042018984 0.43078122 -0.5158323 0.67789465 -0.5456467 -0.60866684 -0.33132255 -0.57024646
神僧 0.26708546 -0.20099993 0.0008868268 0.26019633 -0.56907445 -0.07420608 -0.5906991 0.53751504 -0.6977901 -0.16677661 -1.4167393 -1.0733992
动手 -0.37175488 -1.0319726 -0.2518263 0.6159566 -0.11231354 -0.026328782 0.40055126 0.4551004 0.3972079 0.04676779 -0.5091124 -0.36009705
女儿 -0.7605664 -1.260448 -2.0890331 -0.314803 -1.2005668 0.13792105 0.015987575 -0.63612163 -0.16347344 0.2935824 -0.15109242 -0.35228184
罗汉 0.7636589 -0.51137024 -0.10216715 0.67499876 -0.5722129 0.27247113 -0.65853363 0.7319149 0.6490975 -0.3314696 -0.22569405 0.4396095
老魔 -0.9720174 -0.6906357 -0.19740966 1.5330212 -0.1992115 0.9273268 0.29689896 0.4795208 0.2542251 -1.6140102 -0.019795189 -0.38519007
抽身 -0.33339566 -1.0191243 -0.23161808 0.7305655 0.012397884 -0.3459161 0.14316687 0.49521604 0.24147394 -0.43051273 -0.44876716 0.035935502
之内 0.6191072 -0.53119946 -0.09370853 0.4266077 -0.19692075 -0.08785401 0.029608842 0.12972546 0.2069066 -0.899821 -0.16172248 -0.77734727
长生 0.60706985 -0.55305403 -0.3420474 0.8610904 -0.32149506 0.07375088 -0.23875208 -0.101634145 -0.70323735 -0.008249413 -0.7418042 -0.5144329
神仙 0.4089387 -0.07300732 -0.70523953 1.5396817 0.14562349 -0.45905006 0.0111102285 -0.2327518 0.060190685 -0.51945287 -0.38430434 -0.22498564
旨意 0.9038736 -1.1118835 -0.80730265 -0.6071497 -0.43282196 0.44163245 -0.6361708 0.26422402 -0.036162615 -0.15317385 -0.6977224 -0.606579
小龙 0.39422423 -1.84041 -0.2667039 -0.4749106 -0.44845125 0.4925265 0.80280286 0.9151875 -0.048728757 0.05133683 -0.542234 -0.73362213
好歹 -0.46529195 -0.3952683 -0.6561615 0.58788747 0.023178404 -0.115441985 0.38679898 0.46443027 0.37784308 -0.060795434 -0.6598599 -0.68557227
精神 0.2046695 -0.2518308 -0.18789604 0.38832867 -0.4137934 0.009884595 -0.111037195 0.17780013 0.2180833 -0.30361587 -0.72410965 -0.32736492
后边 -0.4825701 -0.4136372 -0.7261491 0.31037313 -0.22649947 -0.38927373 0.15893792 1.0772237 0.8448478 -0.16115284 -0.39737144 0.07769324
这场 0.07554305 -0.85646755 0.8499117 0.6284324 -1.101582 -0.13915649 -0.100656286 0.35742414 -0.08141255 -0.85577816 -0.7548824 0.48037964
金星 0.4338237 -2.0426736 -1.2174202 -0.81443113 -0.6180104 0.9928938 -0.48122448 -0.8266144 0.6749216 -0.58664024 -0.77940655 -0.1328494
二哥 -0.28973734 -0.47716516 -0.16112316 0.35854316 -0.7441903 -0.15363307 0.57536554 0.28847325 1.1546872 0.20588455 -0.3533402 -0.9823238
肚里 -0.80460835 -0.7994397 0.20722929 1.8375036 -0.46838564 0.27474043 0.6815347 -0.00785312 0.5172491 -0.38445792 -0.076078855 -0.86763537
圈子 0.4340751 -1.2397441 -0.64615905 -0.008161102 -0.8678486 1.2323931 0.4435731 0.87445855 0.20853646 -1.2376333 -0.19702795 0.9849055
城中 -0.19843288 -0.34067994 -0.07876372 0.23140521 -0.866767 -0.14495789 -0.2942958 0.9303172 0.17870964 0.13132857 -0.86493903 0.08924732
时节 0.3115831 -0.51876163 -0.2888838 0.41492334 -0.6670603 0.18805216 -0.3492132 -0.6638916 0.32112443 -0.3197702 -0.49654853 -0.5886806
半个 0.1690029 -1.0783243 -0.72541153 0.12745778 0.008565319 0.30804625 0.3636795 1.0245214 0.2976694 -0.42556763 -0.21912684 -0.008309729
观音 1.232565 -0.95507306 -0.31398815 0.4166415 -0.21104263 0.5548645 -0.45881212 0.28282934 0.34231588 -0.47375646 -0.32221332 0.018586233
这厮 -0.051619865 -1.2248404 -0.16150926 0.43543893 0.11539617 -0.072301365 0.070304915 0.6499018 0.3749564 -0.6280975 -0.38393104 0.07950447
时辰 0.676526 -0.9981525 -0.4210556 0.4472866 -0.0146487 0.18169096 0.57342184 0.46198815 -0.11297198 0.06480659 -0.5327797 -0.5084309
山凹 0.24077658 -0.21432342 -0.598207 0.20224918 -0.8886681 -0.4304183 0.6781312 0.24931423 1.155817 -0.19268177 -0.31849268 0.16031632
山神 1.1644739 -1.4758257 -1.2334211 0.6960466 -0.69856787 0.86509633 0.642197 -0.33868945 0.49981824 -0.014369596 0.7237947 -0.2658768
去处 0.4918809 0.3964551 -0.47535315 0.5367932 -0.53603953 -0.83971244 0.14214382 0.18906344 1.1778795 -0.30991283 -0.6470144 -0.51889914
师弟 0.031411797 -1.2385662 -0.10884981 0.32076702 -0.08814562 0.1572161 -0.4520916 0.8147256 0.43225417 -0.08343856 -0.5226526 -0.16213603
怎敢 -0.25565755 -1.078998 -0.24761543 0.9306657 -0.5676619 -0.17200007 -0.60677135 0.016341647 -0.2726605 -0.2748065 0.077695705 -0.6397324
着实 -0.14198342 -0.8285725 -0.30479196 0.59318876 -0.19250944 -0.19017555 0.21946977 0.05194177 0.36188564 -0.6991814 -0.43915108 0.15226604
望见 0.85512614 -0.5017267 -0.4414309 0.26293346 0.075644456 -0.132323 0.047351424 0.7052409 1.1576495 -0.29074243 -0.5204748 0.04273679
滴泪 -0.25136286 -0.81318766 -0.3127601 -0.39269686 -0.5623368 -0.036720067 -0.22743277 0.48492733 0.1740576 -0.27410483 -0.7873937 -0.4739733
暗想 -0.6202247 -1.3411298 -0.41546425 0.33744302 -0.25527883 0.0015442625 0.2458883 -0.03195001 0.44338775 -0.44735664 -0.26474446 -0.41793874
乾坤 0.8575503 -0.09956873 0.016724432 0.63810915 -0.8180603 -0.028611766 0.49408317 0.101215065 -0.5869176 -0.5589362 -0.8404067 0.0565567
一张 -0.4335485 0.2116368 -1.5904524 0.7104605 -0.11719693 -0.2182087 0.6872105 0.851963 0.005397063 0.178768 -1.0356088 0.27604237
进城 -0.46987274 -0.2600777 -0.29469773 -0.26516074 -0.6085927 0.026118996 -0.43499422 1.0589784 0.3907145 0.04399727 -1.6166685 0.046467386
国师 0.19925518 -0.7411593 -0.039917093 1.2636006 -0.25650507 0.4242861 -0.169795 1.134278 -1.3198578 0.72230744 -1.8512895 -0.8195235
山上 0.40945056 -0.8595533 -0.34709725 0.7343128 -0.213022 -0.11146249 -0.016162142 -0.4139187 0.6683314 -0.89430285 -0.059492245 -0.024798255
打破 -0.353717 -0.9014034 -0.07479662 0.5818713 0.28532156 -0.3831148 0.21303877 0.6282793 0.52376246 -1.3167647 -0.51463085 -0.23865844
一家 -0.7743964 -0.48694405 -0.96372867 0.3489937 -0.69454056 -0.27244294 -0.26194194 0.3266393 0.32452196 0.37161985 -0.6213625 0.08697917
我家 -1.1456006 -0.9623269 -0.9068665 0.8542479 -0.8610784 0.025988674 -0.73357964 0.05290282 0.15394017 0.25847387 -0.11174768 -0.087465525
筋斗 0.6923122 -0.84321165 0.1163432 0.6017494 -0.36917603 0.70964247 0.78672415 0.88065016 0.8486884 -0.13711649 -0.5537531 0.0141286
清风 0.46809548 -0.500992 -0.7063393 1.3265035 0.39666027 -0.14909935 0.30131316 -0.7491112 0.80811024 0.2601769 -1.4553142 0.09173794
依然 -0.017514637 -0.6586441 -0.1596197 0.9260802 -0.18459669 0.6570325 0.6332543 0.67581195 0.21414624 -0.421898 -0.45190337 -0.21963835
挑担 -0.06154915 -0.1267896 -0.53262544 0.3532605 -0.36700964 -0.26511288 -0.8516522 0.8215848 1.1236782 0.12472468 -0.39570355 -0.749752
赌斗 0.34608647 -1.4789546 0.64276016 1.0069326 -0.54617786 -0.035896663 -0.11878079 0.5239607 -0.046823356 -0.5365025 -0.19513339 0.20086698
找寻 0.24861364 -0.23867902 -0.43252265 0.20339988 -0.71099544 0.0838844 0.57242376 0.38895503 1.1377926 -0.3743359 -0.22321 -0.124229416
猴头 -0.3794579 -1.2179683 -0.22218956 0.42119563 -0.060304876 0.7809178 -0.5262689 -0.01297533 0.609407 -0.699193 -0.5741516 -0.4291022
老道 -0.0037858502 0.076060064 -1.5512658 0.47687384 -0.6599601 -0.4406547 -0.4108196 0.30455214 0.4000745 0.4608815 -0.40721115 -0.119708
得胜 -0.36291412 -0.75045305 0.13356294 0.23312931 -0.75802606 0.72170484 0.32977885 1.1533966 0.173967 -0.5098794 -0.78960675 0.33974725
几年 -0.23968415 -0.81809115 -0.23592512 0.46965486 -0.55914485 0.097209916 -0.38865978 -0.12648568 0.52958983 -0.27194327 -0.18137684 -0.67775065
身子 -0.8405131 -0.82727027 -0.6668882 0.87390935 -0.6074452 0.5955372 1.293722 0.023907311 0.30629504 -0.35046184 -0.28702182 -0.19755337
父子 -0.11471999 -0.66501015 -0.17461982 -0.5935442 -0.8697438 1.1633078 -0.5186016 0.86606574 0.6572122 -1.3648043 -0.8737784 0.27808514
那道士 0.09910478 -1.4863605 -0.2713993 1.299389 0.36575937 0.32744363 0.29416034 0.4866803 -0.33048493 0.65164495 -1.3361884 0.15453959
树上 -0.052042227 -0.54497015 -0.69508517 0.84509176 -0.17135996 -0.17027685 0.14081573 -0.33785978 1.072841 0.31188512 -0.5907508 -0.38740498
高山 1.091275 0.331385 -0.3415608 0.37413132 -0.9057215 -0.026382565 0.5478748 0.4607744 1.0909363 -0.58314687 -0.12933384 -0.5178899
天晚 -0.027819023 0.21734712 0.11154913 0.8805492 -0.77062726 0.008292032 -0.5941465 0.9432029 0.43026912 -0.25110716 -0.61935604 0.07258501
来到 0.37170833 -0.40428066 -0.9403915 0.17049722 -0.11766585 -0.120429695 0.23514469 0.1952633 0.6370534 -0.03227106 -0.47231779 -0.35558954
拜谢 0.4959496 -0.0634879 -0.4802383 0.05007743 -0.37790358 0.71121687 -0.41508898 0.45546237 0.07557095 -0.32957077 -0.95352966 -0.68539083
不来 -0.21087718 -0.9081228 -0.41795692 0.0915032 -0.5267304 0.057742387 -0.21739253 0.29609227 0.28568253 -0.11950119 -0.38586572 -0.17117636
大闹天宫 0.6668698 -1.7081585 -0.57318765 0.60000974 -0.39250982 0.4969068 -0.29943275 -0.46783522 -0.036809128 -0.528169 0.2011638 -0.2524609
看着 -0.5205151 -0.93111014 -0.36514646 0.5019764 -0.022510465 -0.12142392 0.73740256 0.36337954 0.40758017 -0.13647768 -0.78902197 -0.22647491
众人 -0.48176306 0.024499053 -0.5970161 0.3587324 -0.65463305 -0.23723313 0.4076404 0.98450255 0.6623302 0.15558057 -0.63036233 -0.18140724
吹口 -0.5776877 -0.5084505 -0.5245587 1.4024228 -0.29772916 1.260024 1.3332239 0.76322 -0.15863368 -0.33899066 -0.5465101 -0.6439661
天色 0.11698352 0.17307985 -0.32402995 0.7213208 -0.5589428 -0.4233818 -0.032645743 0.77241826 0.9329156 0.086518474 -0.5219052 -0.063479684
寺里 -0.47135428 -0.1700597 -0.5251151 0.6006757 -0.3805915 -0.41819042 -0.7093075 0.5595707 0.0054813004 0.09176892 -1.3719133 0.3536134
我来 -0.057450783 -1.1349449 -0.48703057 0.1600281 -0.02920963 0.17232056 0.1204725 0.4532632 0.38968346 -0.08906289 -0.4943103 -0.65918475
记得 -0.34795886 -0.8368968 -0.66314065 0.026341708 -0.43624446 -0.03951895 -0.33240825 0.14066753 0.17146477 -0.48342934 -0.3253141 -0.32024178
想必 -0.034327164 -0.4727562 -0.63591665 0.74681526 -0.42482126 -0.11808589 -0.029054713 0.52036923 0.38180512 0.2419626 -0.35751057 0.09420214
莫念 -0.21902885 -1.368381 -0.5876651 0.35694185 0.11581933 0.91679615 0.34769285 -0.41207463 1.6053512 0.18661256 -1.1491796 -0.8878169
一向 0.18523647 -1.214978 -0.53454685 0.30563417 -0.14833702 -0.19060545 -0.13742398 0.2696958 -0.009316608 0.0962316 -0.38769808 -0.3026021
一夜 -0.48774198 0.24226545 -0.055580698 0.547097 -0.9362167 0.25505626 0.28966907 0.43968526 0.7461392 -0.1740375 -0.87219185 -0.35938615
宝剑 -0.26915044 -1.1125457 0.08201382 1.6779649 0.09995858 0.13064896 0.27659738 0.20665905 -0.31957018 -1.0744979 -0.6726456 0.46913707
君王 0.009338576 -0.43105438 -0.3065989 0.5267816 -0.54971856 -0.102327526 -0.39359078 0.33706534 -1.1818303 0.15868577 -1.6803067 -0.17148574
一部 1.4947007 0.88248914 -2.656673 1.5634825 -1.7400489 0.12423562 -2.0644104 -0.873377 -0.914802 -3.051101 0.31176114 -0.6987616
人间 0.54992294 -0.2134891 -0.19088092 0.23668198 -0.7567461 -0.4680455 -0.06555515 0.34935296 0.09725559 -0.76011103 -0.46516785 0.20669267
计较 -0.56784374 -1.0151085 -0.9939989 0.33844537 -0.46175674 0.6944324 -0.011625786 -0.22689357 0.5646649 0.2501407 -0.64568865 -0.24313761
那厢 0.41294715 -0.41462505 -0.7986256 0.63004893 -0.15064748 -0.29045376 0.00092100253 -0.026987504 0.43565923 -0.104472734 -0.36779842 -0.20352332
远近 0.041229576 -0.074692845 -0.59138983 0.8189475 -0.75705844 0.06011032 -0.19735488 0.34332177 0.7570256 0.44015795 -0.32563037 -0.019946191
一发 -0.89402425 -0.81911844 -0.65533084 0.37564972 -0.38039386 0.053629752 -0.20388736 0.3811143 0.3349684 -0.46083277 -0.27552137 -0.2514685
妈妈 -1.3562273 -0.6692986 -1.5054532 0.12311338 -0.71687526 -0.5177729 -0.3936947 0.6972398 0.6316063 0.0013618455 -0.13708717 -0.2844011
口中 -0.25316915 -0.7571541 -0.37738568 1.0789815 0.35641894 0.0725694 -0.044756636 0.1321176 0.30516237 -0.37269372 -0.6177841 -0.3628528
下手 -0.49972963 -0.8667543 -0.2903705 0.4767844 -0.3846144 0.3395316 0.33309177 0.5939116 0.24469009 -0.12037848 -0.5055842 -0.20370102
天下 0.6751183 -0.36534253 0.046850618 0.68586445 -0.91191787 -0.33898884 -0.11249542 -0.04707815 -0.32473862 0.33373687 -0.56832373 -0.81826645
暗笑 -0.53291404 -1.0466768 -0.6030541 0.66838944 -0.33004436 0.0600283 0.58455 0.07442808 0.5747118 -0.10705878 -0.3977037 0.16546074
说道 -0.97026014 -0.80869013 -0.6370951 0.35551438 -0.4083545 0.00038949167 -0.6363568 -0.0010013413 0.62922615 -0.11595119 -0.47951394 -0.72719276
二来 -0.39192066 -0.6645825 -0.5378479 0.15284431 -0.6822402 0.1045111 -0.4075142 -0.019813092 0.13075243 -0.03313038 -0.6611763 -0.3832523
好道 -0.6790304 -1.1560577 -0.7709233 1.0533222 -0.8230683 0.16831231 0.2953474 0.14588206 0.06197433 0.85583514 -0.15023716 -0.13837166
向前 0.020183008 -0.7558371 -0.7430169 0.4320944 -0.054404262 -0.062902875 0.19545086 0.3283325 0.35069838 -0.50353163 -0.1381124 -0.024609618
殿下 -0.19027239 -0.5828543 -0.32604828 -0.32998294 -0.79453856 1.0689683 -0.58327806 0.9036696 -0.28479415 -0.7267538 -1.021216 -0.12553719
芭蕉扇 0.3972986 -0.9833143 -0.24200706 1.8909718 -0.027628606 0.611615 -0.6087277 -0.38945636 -0.1991907 -1.467009 0.16394925 0.18508472
之物 -0.18634795 0.00497468 -0.75068265 0.6446914 -0.60608184 0.7605009 0.34474474 0.062297046 -0.35170534 -0.4505894 -0.7242299 -0.03712181
这泼 -0.10052208 -1.3317723 -0.054022145 0.8802001 0.22704744 -0.34653446 -0.019734299 -0.01901619 0.5576443 -0.50439084 -0.5081274 -0.101407416
脱身 -0.022437353 -1.1776214 -0.22014984 0.83716965 -0.19457082 0.4620783 0.10339048 -0.15530516 0.11514503 -0.1491803 -0.3106166 -0.5380699
万望 0.30368903 -0.96318537 -0.5521628 0.417909 -0.13707086 0.085149996 -0.9829177 0.17280099 -0.2475481 0.2529571 -0.70817256 -0.822286
慈悲 0.057881948 -0.86498344 -0.19653656 0.36874762 -0.51199126 0.32649156 -1.0651064 0.020465048 0.63807774 -0.1503801 -0.5124094 -0.30282217
称谢 0.5047587 0.07833455 -0.6174889 0.098255046 -0.51721865 0.5047104 -0.87540287 0.9185882 0.53450257 -0.56907403 -0.22318591 -0.59886086
一片 0.1440835 -0.34991002 -0.48736918 0.49885482 -0.2800037 -0.30094802 0.6683509 0.2779472 -0.09256919 -0.36836725 -0.50214535 -0.5272411
渐渐 -0.19125846 -0.29434672 -0.013951338 0.58702266 -0.71116376 -0.20136552 0.43112016 0.7699663 0.46718037 0.043971412 -0.62776166 0.17517073
买卖 -0.91107136 -0.7274773 -0.89137274 0.09414053 -0.5912547 -0.085864365 0.33950308 0.03385367 0.7239745 -0.25114432 -0.35979134 -0.5196643
声音 -0.19131817 -0.6286192 -0.800254 0.20496058 -0.16258125 -0.25260845 0.4419457 0.64955056 0.7155146 -0.27942798 -0.014732921 -0.64712095
真假 0.1533578 -1.114036 -0.072049595 0.24149092 0.04600173 0.029935645 0.060053606 0.1928241 -0.22957033 -0.70905644 -0.5622735 -1.0000585
打听 -0.026703095 -0.835727 -0.074437045 0.2508788 -0.5430851 -0.03934263 0.45889258 0.3546463 1.318612 -0.3876752 -0.38688838 -0.038363826
万岁 0.33133033 -0.40125117 -0.28928193 -0.07214472 -0.20970954 -0.06834841 -0.0025119912 0.2824048 -0.6511043 -0.12380676 -1.6553762 -1.091312
牛王 0.5677816 -1.4843639 0.2988631 1.3707156 0.06616745 -0.19650814 -0.09294298 -0.4714846 -0.20559339 -1.6041896 -0.2042102 -0.040029734
南天门 1.2833737 -1.0635121 -0.72439104 -0.088549055 -0.19291165 1.3933036 0.11080814 -0.15821624 0.33507106 -0.8313224 -1.0677123 0.21980539
日月 0.9883873 -0.71709836 0.16467969 0.7211458 -1.2427838 -0.42693946 0.09359994 -0.7382863 -0.18691882 -0.64081275 -0.2529455 0.14829972
多时 0.37553275 -0.8557608 -0.14847466 0.07705358 -0.5072266 -0.018333964 0.17543167 0.4879835 -0.1846081 -0.6515567 -0.31282043 -0.26585615
好生 0.09602459 -0.46997306 -0.28147638 0.09427042 -0.7052487 0.2871324 0.11904044 0.28423515 0.3646989 0.035598952 -0.49973163 -0.80921906
公公 -0.45064613 -0.87901086 -1.2022213 1.0316235 -0.82200074 -0.16433133 -0.9486957 0.57739586 0.41536343 0.460378 0.55446756 0.058583543
暗喜 -0.43841374 -0.46893212 -0.25776213 0.90123194 -0.5023506 0.22930826 0.16045433 0.3057871 0.032548655 -0.2216057 -0.47719026 -0.3247515
之心 -0.3313902 -0.51201 -0.12872227 0.48315915 -0.89367384 0.46131194 -0.49005258 0.30191714 0.2524444 -0.027291147 -0.31879783 -0.9232603
众神 1.3873434 -0.7922754 -0.3811537 0.13423337 -0.6719824 1.3725817 0.24859847 0.3649886 -0.02636933 -0.28758633 -0.8542025 0.17697611
不许 0.29379702 -0.69309956 -0.28037304 0.88412315 0.07953315 0.6793935 0.2706116 0.57442766 0.477513 0.14275104 -0.7818078 -0.07617423
挑着 0.100580156 0.013019239 0.07154751 0.21175924 -0.7029803 0.052426383 0.055280756 0.85353184 1.47237 0.009257478 -0.63598275 -1.1101149
门上 0.015472821 0.026854847 -0.46694008 0.26547512 0.2612067 -0.687212 0.12733229 0.6075364 1.2477373 -0.97183114 -1.0521375 -0.01595485
一双 -0.38564184 -0.2561314 -1.1201946 0.7944312 -0.19246936 -1.068771 0.3423433 0.9224118 -0.4512205 -0.44386527 -0.3355752 0.40274158
安歇 -0.42116883 0.5687423 -0.6639074 0.119812705 -0.6605116 -0.36571658 -0.7240909 0.969098 0.81922066 -0.0015203104 -1.1323733 -0.50065315
容易 -0.07112111 -0.60265183 -0.22208837 0.82721096 -0.82100666 0.13280423 0.16561292 -0.14294352 0.4679679 0.7050306 -0.8498553 -0.12366286
睡着 -0.9322448 -0.4911938 -0.7404783 0.28788945 -0.14349642 0.22897947 0.42721522 0.19502996 0.6609066 -0.54075646 -1.1722884 0.12219927
雷音 1.0015694 -0.068307266 -0.22158518 0.9045564 -0.49290994 -0.5556391 -0.779852 0.41419452 0.53745395 -0.057875846 0.03766736 -0.96019286
长嘴 -1.0497595 -1.0662643 -0.9263848 0.374362 0.06269175 -0.6011425 -0.034463473 1.1411967 0.41506398 -0.33788 -0.08752712 -0.5602731
交战 0.33224258 -1.8807037 0.1976719 0.14713642 -0.36690137 0.25040013 -0.20828179 0.6994862 0.45916745 -0.7250247 -0.13724656 0.093193
光明 0.8835229 -0.20393664 0.08071014 -0.009623919 -0.629466 -0.20591702 0.08156194 0.5180207 0.19467464 -0.7846732 -0.81859815 0.31769976
睡觉 -0.89320207 -0.56454647 -0.6256384 0.031954817 -0.8604129 -0.4060939 0.5876434 0.08135051 0.8697509 0.23090348 -0.8080928 -0.5221026
城池 0.4105363 0.2729517 0.3386216 0.24791428 -1.0576806 -0.19902799 0.018193029 0.7041363 0.77483493 -0.51478183 -0.7376596 -0.3959735
之中 0.54852116 -0.03006803 -0.64507574 0.5539031 -0.40308893 -0.019105896 0.06216283 -0.18028791 0.45386282 -0.8969646 -0.11864048 -0.56587195
个个 0.111165546 -0.4813259 -0.60656863 0.23943302 -0.7204838 0.16774015 0.008301784 0.9007206 -0.31226462 -0.2512418 -0.17475533 0.12798415
冲撞 0.21004118 -1.3447152 -0.631297 0.94499445 0.14459193 -0.47415644 -0.57476115 0.34176528 0.20967309 0.5852708 -0.33314747 -0.33928782
雷音寺 0.97640055 -0.5139228 -0.497087 0.90186954 0.15267849 -0.84245574 -1.4273789 1.669975 -0.08982205 -0.032124132 -0.23335607 -0.6247247
真言 0.44065896 -0.75674844 -0.42586005 0.7042904 -0.12490867 1.0961756 0.47487044 0.2534816 0.5694104 0.042523846 -0.5498757 -0.5140231
莫说 -0.4264368 -0.96122956 0.074828975 0.59294283 -0.77851444 0.49862775 -0.23846453 0.031751767 0.38013285 -0.04218612 -0.41765586 -0.51272357
那唐僧 -0.50726956 -0.7437622 -0.4093072 0.002502155 -0.5371395 0.21725145 -0.1907964 0.5007093 0.26968312 -0.39771846 -0.44695094 -0.64821047
当面 0.5058837 -1.2216474 -0.13017027 0.578213 0.26424003 0.41215256 -0.112108804 0.23022188 0.22645675 -0.3381157 -0.7545756 -0.014703863
变做 -0.55062455 -0.46089572 -0.7453456 1.0228693 -0.1513368 0.33653983 1.2147211 0.18151197 0.38476375 -0.5364433 -0.55737686 -0.08961102
看守 -0.029684266 -0.6283368 -0.017986342 0.02739529 -0.3471368 0.41386124 -0.03173204 0.89441335 0.9859958 -0.026524926 -0.910587 -0.21927397
相持 -0.037744023 -1.2968633 0.75426936 0.9246887 -0.90432477 -0.30536675 -0.07729762 0.5761695 -0.12120748 -0.8472157 -0.22161254 0.5468446
洞门 0.26340264 -0.88359183 -0.28887305 0.39667794 -0.22015771 -0.33231038 0.33893344 0.3389399 0.8789326 -1.3178447 -0.10851655 0.43138176
女婿 -0.58787405 -0.8231967 -2.100834 -0.06260042 -1.3287818 0.23324403 0.38707453 -0.7451118 0.68897855 0.671879 -0.09687375 -1.040769
二则 -0.06273633 -0.5400274 -0.27569577 0.123764746 -0.8188275 0.3426286 -0.5940674 0.6450355 -0.03016619 0.034807913 -0.6073627 -0.32117382
三位 -0.32166132 0.13107319 -0.6480844 0.4110616 -0.59883565 -0.13055824 -0.70982945 0.5571512 -0.32284817 0.112012796 -0.97392726 -1.0661398
供养 0.010310958 -0.10455806 -1.2232742 0.2812908 -0.39248693 -0.057786003 -0.439942 0.18272217 -0.06781422 0.4520675 -1.3317709 0.25184503
好人 -0.37521595 -0.837584 -0.49519947 0.58572036 -0.28830066 -0.1438208 -0.32580465 0.52093685 0.68035346 -0.03833996 -0.015140622 -0.5757811
传旨 0.10093647 -0.21849163 -0.2446719 0.025892677 -0.74951524 0.3848647 -0.45907825 1.0219026 -1.1667947 -0.16550536 -1.4561263 -1.1904302
听言 -0.43565822 -0.33471408 -0.5480434 0.22413543 -0.6369207 0.10999701 -0.5773334 0.6836701 0.3447882 -0.634075 -0.104165785 -0.32217008
牛魔王 0.108688794 -1.6989126 -0.82422876 1.0198449 0.06125836 -0.22215751 -0.35350496 -1.1880987 -0.02197303 -1.02182 -0.15320726 -0.06379317
天上 0.6295977 -0.8010947 -0.00016388316 -0.041863404 -0.46208593 0.5664113 0.18761587 -0.62317747 -0.13734412 -0.7319785 -1.3502332 -0.33838496
上面 -0.018983861 -0.5619678 -1.1050928 0.76278156 0.14454925 -0.042945437 0.6126254 0.20834072 0.07836551 0.33255708 -0.9768338 0.06577947
之声 0.18751033 0.29918325 -0.5961752 0.5721461 -0.4671159 -0.54340667 0.28358078 0.7539334 0.38840458 -0.3109116 -0.75419575 0.37652808
李天王 0.91095376 -1.6729171 -0.82694423 -0.6739076 -0.48016143 0.99217457 -0.35576484 0.1450971 0.18728358 -1.3654383 -0.803179 0.7797261
把门 -0.64085704 -0.95846057 -0.75883216 0.444501 0.051466808 -0.14595495 0.48799327 0.76753163 0.41762 -1.3905727 -0.19404055 0.19534549
点头 0.28154597 -0.8308332 -0.7471809 0.6429252 -0.25714704 -0.17902479 -0.21984968 0.3444132 0.40955082 0.46403816 -0.121939845 -0.2181914
修行 0.8787228 -0.5828278 0.17926311 0.74380964 -0.6393454 -0.12291088 -0.396805 -0.19621544 0.31183442 -0.148276 -0.38851064 -0.5190309
行囊 -0.11117782 -0.1823025 -0.2005707 0.18646303 -0.9330634 0.10755427 -0.38304085 1.1479212 1.1282148 0.16808721 -0.2614059 -0.7439593
二位 -0.76139313 -0.39091358 -0.9538067 0.5966961 -0.5486207 0.10131854 -0.23675682 0.90264386 0.26426393 0.18171729 -0.12791309 -0.26514402
分明 -0.041378852 -0.51145613 -0.18003258 0.08619914 -0.42065793 -0.42218602 0.0031155045 0.17145188 0.3043259 -0.45792103 -0.67818373 -0.5593
披挂 -0.4565844 -1.3472437 -0.020876922 0.5266962 -0.07283617 -0.69628674 -0.229355 0.8228057 -0.0125865005 -2.020706 -0.076115504 0.13427548
前门 -0.94727105 -0.9063689 -0.4416294 0.47693622 0.22039887 -0.5512395 0.30809104 0.7215248 0.76933336 -1.600639 -0.39469883 -0.046127316
一直 0.18055774 -0.065599844 -0.26222456 0.33409423 -0.5642206 -0.110183395 0.31214288 0.41285828 1.2601417 -0.46365288 -0.47148973 -0.2392936
现出 -0.48876283 -1.0912025 -0.37821105 0.7985634 0.09528117 -0.31141266 0.6732413 0.22464755 0.14819665 -0.63511074 -0.28906402 -0.48683983
夯货 -0.70473933 -1.033849 -0.55416244 0.48594096 0.058036104 -0.19775411 0.1954412 -0.24157652 0.96347916 -0.023259226 -0.5911421 -1.139217
寿星 0.6248061 -0.3749546 -0.96888745 0.34706965 0.6069424 -0.60854614 0.2947431 -0.18577045 -0.17307808 -0.57740504 -1.1883581 -0.73177356
左手 0.18623371 -0.4354934 -0.6950754 1.2353817 0.6431996 0.16224858 0.07826923 0.51378644 -0.64607805 -0.4286342 -1.0340985 -0.30646217
战战兢兢 -0.83937484 -0.7471026 -0.06123983 0.28811318 -0.5553014 -0.46622103 0.2953051 0.43033433 0.32949376 -0.26516026 -0.786234 -0.27585784
晦气 -0.6798482 -1.1624441 -0.41736194 0.349835 -0.14637385 -0.20555332 0.44791514 0.4574017 0.8987203 -0.3999556 -0.33304593 -0.19235052
官道 -0.12520239 -0.61854136 0.15165289 -0.12648517 -0.080782555 -0.6860194 -0.42351294 1.2344302 -0.009774067 0.24589765 -1.903818 -0.83809406
天师 1.6608275 -1.2916188 -1.0471148 -1.1619527 -0.45156273 1.4378743 -0.67279315 -0.15768759 0.016977556 -0.91797227 -1.4549197 -0.81023735
员外 -0.79077643 0.24525948 -1.3546437 0.14027002 -1.0075235 -0.16352017 -1.1015952 0.5105777 0.31204373 -0.27131712 -0.4771721 -0.39547497
欠身 -0.02426888 -0.3489845 -0.67517316 0.53537345 0.0625714 -0.8304346 0.09286619 0.8234933 -0.031826142 0.14580311 -0.8246647 -0.44525877
大字 0.36430916 -0.18496107 -0.51175374 0.63354266 0.12123109 -1.5743471 0.34097853 0.73758954 1.260761 -0.35444775 -0.83275276 0.3151879
水帘洞 0.956272 -1.1040273 0.23014118 0.2836358 -0.46680808 -0.16946739 -0.1888375 -0.35519293 1.0220135 -0.6571448 -0.16420631 -0.95027673
莫怕 -0.60276544 -0.6851473 -0.1271572 0.74214584 -0.15733463 -0.2647135 0.19115938 1.108101 0.4271973 -0.63946104 -0.048437826 -0.8945325
牵马 -0.1381701 -0.11714514 -0.7500066 0.3162771 -0.20363618 -0.30794775 -0.5882116 0.9668965 1.2855216 0.13032834 -0.48687187 -0.48223487
来得 -0.2547539 -0.5389368 -0.1944536 0.4552937 -0.47874033 -0.5081141 0.15146768 0.8321388 0.4480999 -0.62208897 -0.2021175 0.0070945076
上西天 0.42560148 -0.6158992 -0.51448995 0.7689855 -0.42912245 -0.07356865 -1.0739377 1.074053 0.138644 0.34320933 0.09023057 -1.1111104
沙门 0.8549054 -1.0484647 -0.3793454 0.65855455 -0.42997158 0.057102602 -0.68989056 0.38004854 0.08298245 -0.029353492 0.33015415 -0.79328436
三日 0.7744795 -0.8349954 -0.6095194 0.016637985 -0.59098774 -0.1476229 -0.5874678 -0.38400072 0.2590084 0.7395395 -1.0095736 -0.64198166
只教 -0.13247032 -0.7971092 -0.30967206 0.2788396 -0.032667466 0.6554369 0.2087283 0.68236345 0.47334754 0.008834361 -0.9216047 -0.72706956
必然 -0.19098608 -0.66995597 -0.3968765 0.17503667 -0.47570863 0.55012804 -0.0069558015 0.5311275 0.5874145 -0.17119095 -0.49943784 -0.23063911
不济 -0.306312 -1.458155 -0.054094445 0.5167369 -0.9142337 -0.18117657 0.51088154 0.2308265 0.3757602 0.508417 -0.21789943 -0.32804266
问讯 0.3351624 0.13790815 -1.3145951 0.9969212 0.15275075 -0.89938223 -0.61528796 1.211519 0.10880969 -0.34502876 0.0072913575 -0.5551217
外公 -0.67532206 -1.5007071 -0.3835692 0.43583032 0.08808193 -0.5874801 -0.6529777 0.7052638 -0.17032868 -1.0715574 -0.42245096 0.2166984
打开 -0.49541613 0.025312275 -0.12035204 0.20705643 -0.8210556 0.24886137 0.27719575 0.84661806 0.281456 -0.21852864 -0.8602154 -0.46585777
径到 0.29499313 -0.50065833 -0.57500654 0.4364903 0.11207381 0.21294214 0.37075976 0.35637245 0.57478696 0.044677272 -1.158674 0.10512994
金银 -0.8680852 -0.35782754 -0.9042763 0.04030454 -1.6687216 0.10904843 -0.42686835 0.2680856 0.2280181 0.060688045 -0.06343113 -0.2581496
本象 -0.089822926 -1.2800734 -0.20684901 0.8138311 0.04190009 -0.26560217 0.6851708 0.36183813 0.036709566 -0.66438806 -0.20113854 -0.060874764
那山 0.72453225 -0.37195373 -0.15631004 1.0206256 -0.6776942 -0.6555676 0.13199136 0.19636995 0.79819036 -0.3053787 0.25249717 -0.016486848
正说 -0.30639297 -0.105402045 -0.44801915 0.28210667 -0.45317763 0.1732318 -0.50716406 0.62617457 0.40917 -0.22671372 -1.030271 0.30894998
洞府 0.15269163 -0.6397166 -0.5308745 0.10053898 -0.28248048 -0.7648085 0.65799206 -0.0471266 0.6803779 -1.5048183 -0.4030634 0.29901302
法师 0.016443782 -0.47962752 -0.58451253 0.6031512 -0.8928361 -0.043901734 -0.9907027 0.86174 -0.92855567 0.4200114 -0.49438676 -0.7902514
原身 -0.38148597 -1.0131451 -0.39935747 0.6959081 0.13022594 0.17976215 0.6538419 0.83843005 0.035670903 -0.32310116 -0.3765744 -0.5418036
官儿 -0.6835065 -1.1895131 -1.3828216 -0.06368456 -0.3986958 0.36288247 -0.1142382 -0.415764 0.37132815 0.04993126 -0.50979626 -0.3353512
逃生 -0.05071371 -1.2571887 -0.021614373 0.35033318 -0.28234723 0.14509924 0.29354185 1.0252644 0.4104763 -0.6210306 -0.17943121 0.037899524
喜道 0.066079676 -0.23903377 -0.56856126 0.49409103 -0.016644746 0.22680262 -0.2240447 0.87755185 -0.18644671 -0.5388402 -0.44549754 -0.631742
武艺 0.03120215 -1.0244025 0.073167086 0.38596642 -0.7855984 0.37413064 -0.87341017 0.6255896 -0.46018443 -0.6337818 -0.47254345 0.30591714
三千 0.99314284 -0.27705738 0.51102734 1.116539 -0.5706678 0.35657656 -0.5071096 0.67569524 0.22264446 -0.26034597 -0.43917993 -0.5670347
悟净 0.44094786 -1.1009707 -0.14801925 0.6294255 -0.1898621 0.019776978 0.07824298 0.62620425 0.8679908 0.35430157 -0.032839756 -1.1154721
明月 0.046113167 -0.42205644 -0.98510206 1.1666173 0.51453024 -0.15928169 0.2429967 -0.9738455 0.88395286 0.35734802 -2.1052318 -0.0006624542
开口 -0.5917777 -0.7579739 -0.19373843 0.7415935 -0.31255153 0.08923053 -0.18373202 0.5090935 0.40563 -0.37800184 -0.2523195 -0.3900446
二魔道 -1.0262092 -0.49646023 -0.3836891 1.8109921 -0.3719826 1.2570941 0.22690563 0.55422395 0.5688027 -1.8708125 0.50590926 -1.2527454
阴阳 0.5349024 0.071666256 -0.1690049 1.6057922 -1.6729419 -0.34486488 0.23741114 -0.5796604 -0.53198165 -0.26877737 0.28894654 -0.52640396
朝上 -0.016375916 -0.09410873 -1.1435113 -0.10134247 -0.3199421 0.20306201 -0.2270693 0.29301372 -0.14392176 -0.690553 -0.46215296 -0.6762162
阎王 -0.1572929 -1.2352958 -0.549479 0.054006584 -1.4692684 0.25720826 -0.16772388 -0.37228537 0.12068964 -0.048671283 0.22931345 -0.2501896
满心欢喜 -0.37655193 -0.33012095 -0.6479977 0.32302567 -0.89159185 0.2551647 -0.54039943 0.17521328 -0.061262555 -0.33266035 -0.40331239 -0.11394214
之后 -0.052058022 -0.59711885 -0.5321525 0.5618109 -0.45642874 -0.3339409 -0.21103646 0.3374829 -0.30959168 0.187198 -0.39089692 -0.89722
想着 -0.3593082 -0.8958163 -0.66909933 0.5118966 -0.26185727 0.25728622 0.11167544 -0.19601938 0.009986333 -0.20858979 -0.6491972 -0.084511675
即忙 -0.0940629 -0.8129306 -0.9509694 0.036450084 0.21232875 -0.002234356 0.08937199 0.82089853 0.3769613 -0.56463146 -0.38312376 -0.05692938
粗细 -0.8105428 -0.74028546 -0.8003419 0.96989226 -0.58420366 0.8229077 0.7582925 0.3465437 -0.10356212 -0.30595034 -0.23266491 0.10968971
长短 -0.4458865 -0.7036796 -0.5524405 1.0122571 -0.5661445 0.4133149 0.8290824 0.10787814 -0.42937875 -0.55938864 -0.12494969 -0.07389116
五行 1.3692839 -0.5590327 0.13663523 1.351393 -1.2713182 0.55450076 0.36983275 -0.4304039 -0.018415945 -0.037360426 0.009191133 -0.0883449
尘埃 0.19728921 -0.42365095 0.1285869 0.87479556 0.086457305 -0.41000736 0.6484297 0.4958884 0.11007249 -0.76098144 -0.59991616 -0.54520696
方可 0.2154907 -0.2485508 -0.058668613 0.7499355 -0.4584544 0.14520319 -0.017837675 0.52613264 0.22227792 0.28918058 -0.60435694 -0.91023207
今年 -0.5982311 -0.75894976 -1.6786481 0.08095426 -1.5899982 -0.35211867 -0.73889107 0.3341257 -0.85912263 0.24861552 -0.057912104 0.49047288
一处 -0.031907648 -0.41946113 0.073570855 0.73872805 -0.46437484 -0.04972952 0.33 0.2248551 0.4541918 -0.18351915 -0.7560133 0.024871167
一拥 -0.43394935 -0.7961885 -0.29148895 -0.055462036 -0.40752253 0.2225338 0.37904358 1.3559192 0.27194926 -1.084445 -0.49955404 0.23137093
法儿 -0.32434514 -1.2198914 -0.29295966 0.7429229 -0.1696783 0.66171837 0.20292377 0.15516111 0.51931703 0.13049836 -0.7862373 0.05520915
五方 1.3649988 -0.730614 -0.87210596 0.18272796 -0.7288567 1.3093843 0.9473723 0.6253719 -0.4395865 -0.36583892 -0.12108859 -0.36379835
等候 0.4012634 -0.9096361 -0.4444071 0.08866164 -0.16327265 0.16330542 -0.020486405 0.70723534 0.64305246 -0.20665707 -0.09572436 -0.7424201
老和尚 -0.59547925 -0.44882977 -0.7733781 0.69582254 -0.2531109 0.25103986 -0.41688076 0.09869856 1.1044624 -0.006271851 -0.99046427 0.33097923
何在 0.33762822 -1.2167478 -0.6061311 0.24349348 0.25547874 0.0013568499 0.21027392 0.83157897 -0.002457614 0.00074979395 -0.7202017 -0.077947065
欣然 0.23495188 0.3602283 -0.4494066 -0.04258886 -0.8481204 -0.16769175 -0.43511555 0.83347756 0.122154586 -0.07844501 -0.9666937 -0.5328326
禅堂 -0.523543 0.20960903 -0.80663097 0.23136744 -0.36627448 0.12696792 -0.6465196 0.5606072 1.1833481 -0.33159214 -1.8793043 0.85423213
古人云 -0.21563116 -0.7117601 -0.47921568 0.18400355 -0.44387317 0.03169341 -0.49823582 -0.08826131 0.26465213 0.076573946 -0.85481185 -0.50102365
巡山 -1.582617 -0.59277475 -0.7143579 0.887545 -0.24874051 0.36082917 -0.37013498 0.098931015 1.028085 -1.1702749 -0.16359046 -0.48135844
成功 0.98852444 -0.4848731 -0.2783582 0.65981454 -0.42893016 0.92811775 0.005724963 -0.008933529 -0.045461345 -0.05282644 -0.7526282 -0.4024184
黄金 0.31308088 0.0033393702 -0.7433762 0.39656255 -0.58572763 -0.6054644 -0.6993625 -0.18685055 -0.099581316 -0.18062039 -1.0048779 0.20528316
何方 0.30245486 -0.78838617 -0.5794725 0.20819825 -0.32375532 -0.31962037 -0.59570056 0.73345906 -0.09986674 -0.09910329 -0.20796059 -0.38783073
一抖 -0.5463089 -0.5261184 -0.59193146 0.6178712 -0.057850678 1.140241 0.7882011 0.61208266 0.12540059 -0.5733294 -0.91514826 -0.25676653
那般 -0.4738922 -1.1179352 -0.2839079 0.44574863 -0.25098735 0.041033372 -0.0089620175 0.41904727 0.35417995 0.21509576 -0.57802 -0.36293742
呼呼 -0.37581518 -0.47934553 -0.22500642 0.45840183 -0.815343 -0.01671778 1.0941503 0.41474143 0.30257732 -0.57384884 -0.78668815 0.5919272
停当 -0.7950938 -0.39970264 -0.6857472 0.72132754 -0.44577864 0.043295033 0.21317516 0.5074539 0.21284628 -0.21371795 -0.28763378 -0.46819577
启奏 0.7238408 -0.6042114 -0.33952495 -0.5596991 -0.56127316 0.41310295 -0.7521584 0.7517179 -0.7181978 -0.22015208 -1.4876606 -1.2827938
宝殿 0.69363695 -0.3923836 -0.44569027 -0.08864868 -0.06399113 0.43848687 0.0869138 0.09688895 -0.57539546 -0.42731002 -1.47053 -1.3727545
打扮 -0.3095421 -0.3617003 -0.9296247 1.1336353 0.11555777 -0.7350585 0.14615363 0.53661555 -0.32161796 -0.8292397 -0.29552606 0.31710434
祸事 -0.9345372 -0.67486244 -0.49219596 0.2736365 0.3786223 -0.1645157 -0.3057864 1.4217104 0.45699582 -1.4768435 -0.77302545 -0.02164962
怠慢 0.11687043 -0.37278324 -0.8946128 0.0055986024 -0.3827489 0.20346813 -0.51850885 0.48730448 0.9432259 0.15472426 -0.6043625 -0.16327824
好处 0.42453116 -0.5620868 -0.855341 0.3405691 -0.96267027 -0.30666816 0.30997947 0.29621643 0.26830795 -0.04307466 0.45751402 -0.27053803
前日 0.22727966 -0.5962024 -0.69284624 0.75435543 0.2658511 0.32194215 -0.46120393 0.10727081 0.4279193 0.08451608 -0.69853127 -0.6658258
如意 0.052397028 -1.661373 0.16271546 1.2197119 -0.38761145 -0.6860651 -0.24832682 -0.3564766 0.080487825 -0.20920694 -0.56474376 0.86175865
你家 -0.8993791 -0.54111814 -1.3606772 -0.0452731 -1.4578037 -0.2851745 -0.37791112 0.52133393 0.09162114 0.42144352 0.14196414 -0.5527572
早已 0.005719482 -0.13998224 -0.6726452 0.8589238 0.08655078 0.3398953 -0.27343407 0.5235029 0.7724421 -0.6409355 -0.23346107 -0.21427573
我且 0.13314685 -1.3922464 -0.5232224 0.40364996 -0.0384288 0.16764976 0.4015106 0.21716745 0.3983858 -0.09673075 -0.24751142 -0.31953722
诸天 1.6239997 -0.9727573 -0.8483067 0.23792638 0.82688665 0.49067006 0.16966154 0.83991605 0.609417 -0.6485286 -0.5748977 -0.60739684
大胆 0.37157336 -0.7901375 0.07017865 0.41672516 0.062353626 -0.17110692 -0.5115404 0.5013414 0.003779486 -1.0661379 -0.58381796 -0.14450073
冷笑 -0.0068016513 -1.0219868 0.017330365 0.43937284 -0.374541 0.29365876 -0.23645607 0.49620736 0.14021675 -0.5617382 -0.46188477 -0.032308616
世间 0.4759809 -0.7141326 -0.24062407 0.42753407 -0.56619817 0.1071067 0.31289297 -0.033032082 -0.040485412 0.5303113 -1.0307395 -0.17607082
往前 -0.6455416 -0.6820739 -0.4286562 0.71606535 0.20568223 -0.1785018 0.5270411 0.33940384 0.6675712 -0.48317975 -0.8824732 0.01518588
相迎 0.23992954 -1.4737351 0.37163642 0.8886318 -0.08494076 -0.61719126 -0.3700893 0.8415243 0.28503758 -1.0556482 -0.022084944 0.32165593
莫怪 -0.4453172 -1.3204647 -0.7430651 0.46862215 -0.092244916 -0.40910715 -0.58075094 -0.0065565817 0.4725935 0.1349918 -0.28332105 -0.7762128
婆婆 -0.5367463 -1.2387375 -1.152849 0.84810364 -0.14240317 -0.54273564 0.1523925 0.6605163 0.27209294 1.0554827 -0.32575428 -0.48202616
解了 -0.48351178 -1.254323 -0.57540584 0.34189686 -0.04406851 0.40805966 0.5128477 0.14732201 0.43179682 0.12184742 -0.75598365 -0.40340093
之外 0.49874863 0.050528888 -0.014011195 0.05818379 -0.07549342 -0.36651284 -0.16759714 0.59946615 0.36444783 -0.5778199 -1.1722608 -0.9428059
文牒 0.45305505 0.010051574 -0.31340197 0.041345276 -0.99016833 0.03628165 -0.992826 1.5208715 -0.6211699 0.19332503 -0.9213898 -1.5585039
快早 -0.18348621 -1.4147004 -0.34656546 -0.04133534 -0.4941192 0.16263004 -0.028544351 0.7639494 0.22166301 -0.5214189 0.094761334 -0.21693955
鼻子 -0.7478554 -1.1886047 0.15574369 1.2302593 -0.569667 0.21635519 0.5767562 0.6424121 0.6892277 -0.45076385 -0.17235416 0.5135597
至此 0.7296011 -0.39347252 -0.3064017 0.5780686 -0.878475 -0.16935243 -0.8881622 0.4089823 -0.48260242 0.07977917 -0.38098606 -0.29074597
千里 0.8118846 -0.6149277 -0.57289076 0.93769604 -0.7278648 -0.837127 -0.17580697 0.2497713 0.6623954 0.75588053 -0.12543114 0.22822838
一纵 0.74181855 -0.44252184 -0.0821065 0.93571895 -0.28574324 0.17823714 1.0890992 0.2681331 0.43183723 -0.12923092 -0.55382276 -0.27049562
忽闻 0.53350496 -0.012427756 -0.58383656 -0.17426294 -0.2822093 -0.9176035 0.2390566 0.6474316 0.84263706 -0.82540405 -0.6368845 -0.08877545
今夜 -0.4600883 0.056852207 -0.7465731 -0.108567014 -1.3439263 0.37129736 -0.3549722 0.7464415 -0.2193534 -0.31113812 -0.61702025 0.005179892
昼夜 0.88524187 -0.32133615 -0.2196968 0.78198725 -0.6111729 0.4306883 -0.34427017 -0.11810116 -0.16862737 0.20037344 -0.9611255 -0.26317376
瑞气 1.1889422 0.2839416 0.013387536 0.36979565 -0.57503974 -0.11620937 0.15642585 0.63026935 -0.015582097 -1.2842069 -0.65455425 -0.2885005
执着 0.0418062 -0.8997616 -0.5131348 0.58176506 0.02567649 0.11537941 0.33889288 0.7717963 0.203666 -1.1690487 -0.018073903 0.14154515
伽蓝 1.6822929 -0.5226179 -0.46817955 0.65859175 -0.70059246 1.1582884 0.42956668 0.68443006 -0.118243024 -0.24393255 -0.1866163 -0.09746381
纵身 -0.06378394 -1.170887 -0.014620461 0.86142325 0.25258756 0.18004608 0.35270512 0.6994685 0.8906179 -0.74004626 -0.1439134 -0.35683239
此物 -0.15254898 -0.27483475 -1.0169624 0.40705556 -0.21833748 0.8747717 0.69128364 0.5140472 -0.57280976 -0.4404758 -0.8845756 -0.24749467
若要 -0.15545133 -0.9060965 -0.22817364 0.69927263 -0.4696515 0.72617817 -0.48954374 0.015693964 0.3321152 -0.18673939 -0.4192701 -0.24197252
即变 -0.5684564 -0.6663122 -0.6961373 1.4290769 -0.29737303 1.3110672 1.5417999 0.68094635 0.13723548 -0.42530042 -0.31934506 -0.33971155
高徒 0.032134794 -0.041118596 -0.6964218 0.6693069 -0.72074383 -0.18975283 -1.3166485 1.2027814 -0.7332005 0.147571 -0.5213998 -1.2351842
钦差 0.3670014 -0.35113066 -1.173713 0.60253125 -0.2831604 -0.6618514 -1.0107616 1.7445186 -0.10042175 0.44695312 -0.040568512 -0.74816245
转过 -0.032170072 -0.28669402 -0.9650535 0.40949154 0.14826827 -0.8366736 0.10570624 0.7320252 0.77677643 -0.1011065 -0.4805079 -0.28342357
径入 0.4257169 -0.28964925 -0.73201436 0.09839776 0.36340308 0.042560145 0.018419974 0.6417269 0.49501148 -0.3152409 -0.8258078 -0.54708713
一壁厢 -0.4358528 0.5708507 -0.2008521 0.21544577 -1.0279092 0.27135187 -0.40275615 0.8230895 -0.14838406 -0.16349101 -1.476113 -0.5321817
名唤 0.022898138 -0.52293193 -0.89210826 0.961617 -0.6758849 -0.0970731 -1.2839512 -0.02620617 -0.103107855 -0.034691185 -0.25733843 0.47045842
辛苦 -0.6903972 -0.5084313 -0.031725906 0.3655748 -0.8232306 -0.16478989 0.42564234 0.5297385 1.1168141 0.1625056 -0.72298867 -0.38225746
神兵 0.7439406 -1.0719397 -0.20322387 0.2603243 -0.64176303 0.76379645 -0.15250067 0.8267466 0.415691 -1.0342876 -0.047952652 0.6956828
谢恩 0.34845194 0.052638173 0.10730919 0.62412053 -0.3354667 0.5329977 -0.9510287 0.6568617 -0.35792714 -0.642518 -1.1979295 -1.2293625
疼痛 -0.15508762 -1.3027688 -0.43016505 1.0994941 -0.11367314 0.4867116 0.5808688 -0.39072695 0.8828611 -0.07264124 -0.068629675 -0.75886387
对众 -0.16798398 -0.18159156 -0.81061107 0.2988697 -0.32674465 0.22797306 -0.6301736 0.5398673 -0.22380199 -0.16779996 -0.86335266 -0.1885839
纷纷 0.7578885 -0.028244771 -0.34552002 0.55274945 -0.55768794 -0.49311548 0.8681094 0.2979252 0.45080778 -1.147762 -0.47773087 0.42340267
我师 0.93399763 -1.1806225 -0.48491198 0.4697429 0.03129503 0.24531807 -0.82504004 0.2668582 0.24165617 0.14813519 -0.3313022 -0.43786436
芭蕉 0.4826943 -0.7497147 -0.38676468 1.4535685 -0.32776043 -0.7281811 0.3504871 -0.974799 -0.47481236 -1.1396132 -0.25408494 -0.0005793715
之事 0.16574092 -1.0692471 -0.22265139 -0.11892396 -0.59362066 0.13616705 -0.55185026 0.4991017 -0.13069761 0.30351973 -0.9191375 -0.5227812
即时 0.014166377 -0.4314626 -0.03327759 -0.17693946 -0.51557744 0.61984396 -0.4160584 0.9969611 -0.1680279 -0.29031736 -1.1700442 -0.8024964
奶奶 -1.2007518 -0.41232315 -0.9037398 1.2085584 0.03682155 -0.17705056 -0.2668757 0.37836093 0.28360033 -1.0759234 0.04853191 -0.78466606
太师 -0.34050325 0.13668615 -0.31340754 0.65331024 -0.9887694 -0.1379653 -1.2653804 1.0382651 -0.9258204 -0.035571966 -1.2191077 -1.7393554
奉旨 1.1108873 -0.46662703 -0.48536882 0.115517244 -0.3180173 0.49072418 -0.37961608 0.4918603 -0.0448509 0.0018958515 -0.7299898 -0.61755013
呵呵 -0.14801075 -1.1027142 0.04803196 0.3845384 -0.4008108 0.023749484 -0.4626351 0.75076336 0.26515037 0.029656684 -0.53842324 -0.112462334
不识 0.054501563 -1.0523796 -0.610889 0.7272403 -0.32572243 0.015476359 -0.40749806 0.14515272 0.56926423 0.057719406 0.0023304229 -0.1775774
必有 0.18122607 -0.12675719 -0.4159758 0.20826128 -0.5489497 -0.5311319 -0.33114168 0.39497107 0.64273435 0.1283711 -0.6162329 -0.711892
中华 0.49396428 0.30989623 -0.5446072 0.60666853 -0.88729185 -0.46102855 -1.208322 0.9435127 -0.754677 -0.036234748 -0.65406734 -0.8193753
行凶 0.22674805 -1.2699138 -0.2651108 0.31924474 -0.27269167 -0.029803015 -0.33531258 -0.08668252 0.8468887 -0.47462732 -0.38622555 0.30086672
盘缠 -1.329426 -1.3391386 -0.61575145 0.422654 -1.4721859 0.18639395 -0.21673927 0.5567902 0.38925654 0.114336155 0.3824667 -0.5804302
既有 -0.009263906 -0.45553815 -1.0407407 0.48036715 -0.7180167 0.39114583 -0.9369081 0.19903395 -0.29815665 0.051741574 -0.07343792 -0.45876965
云端 0.46667558 -1.0996525 0.20711589 0.6157122 -0.11307254 0.07861473 0.5689531 0.5245892 0.44330555 -0.39600617 -0.61613137 -0.051146444
无知 -0.01865167 -1.0738473 0.11589315 0.36497834 -0.46283937 -0.6950869 -0.6752975 0.03647643 0.061588358 -1.0949273 -0.18209255 -0.18231983
自然 0.48882204 0.05064037 -0.5649568 0.8838772 -0.52814776 0.4682383 -0.25372636 -0.24143626 0.22211054 0.010968226 -0.741893 -0.22758472
